digraph Tree {
node [shape=box] ;
0 [label="X[350] <= 131.5\ngini = 0.8997\nsamples = 60000\nvalue = [5923, 6742, 5958, 6131, 5842, 5421, 5918, 6265, 5851\n5949]"] ;
1 [label="X[568] <= 0.5\ngini = 0.8812\nsamples = 39160\nvalue = [5433, 623, 4772, 1312, 5353, 3266, 4775, 5773, 3081\n4772]"] ;
0 -> 1 [labeldistance=2.5, labelangle=45, headlabel="True"] ;
2 [label="X[430] <= 0.5\ngini = 0.8386\nsamples = 24084\nvalue = [697, 414, 904, 847, 5133, 1668, 2771, 5568, 1439\n4643]"] ;
1 -> 2 ;
3 [label="X[405] <= 2.5\ngini = 0.7051\nsamples = 9667\nvalue = [258, 404, 565, 424, 503, 503, 315, 4974, 836, 885]"] ;
2 -> 3 ;
4 [label="X[484] <= 0.5\ngini = 0.4749\nsamples = 6717\nvalue = [247, 71, 401, 93, 336, 92, 166, 4803, 18, 490]"] ;
3 -> 4 ;
5 [label="X[153] <= 0.5\ngini = 0.2617\nsamples = 5435\nvalue = [131, 71, 318, 87, 14, 64, 19, 4655, 13, 63]"] ;
4 -> 5 ;
6 [label="X[594] <= 2.0\ngini = 0.1279\nsamples = 4946\nvalue = [79, 51, 57, 35, 13, 22, 7, 4617, 7, 58]"] ;
5 -> 6 ;
7 [label="X[156] <= 0.5\ngini = 0.0959\nsamples = 4857\nvalue = [1, 49, 57, 31, 13, 17, 7, 4617, 7, 58]"] ;
6 -> 7 ;
8 [label="X[554] <= 3.5\ngini = 0.0749\nsamples = 4796\nvalue = [0, 16, 52, 31, 12, 11, 3, 4612, 3, 56]"] ;
7 -> 8 ;
9 [label="X[159] <= 11.5\ngini = 0.0628\nsamples = 4748\nvalue = [0, 16, 29, 28, 12, 7, 3, 4596, 3, 54]"] ;
8 -> 9 ;
10 [label="X[377] <= 9.0\ngini = 0.058\nsamples = 4736\nvalue = [0, 6, 29, 28, 11, 6, 3, 4596, 3, 54]"] ;
9 -> 10 ;
11 [label="X[457] <= 159.0\ngini = 0.0502\nsamples = 4702\nvalue = [0, 6, 29, 27, 5, 4, 3, 4582, 2, 44]"] ;
10 -> 11 ;
12 [label="X[511] <= 113.0\ngini = 0.0462\nsamples = 4690\nvalue = [0, 6, 29, 27, 5, 3, 3, 4580, 2, 35]"] ;
11 -> 12 ;
13 [label="X[461] <= 225.5\ngini = 0.0434\nsamples = 4683\nvalue = [0, 6, 29, 27, 4, 3, 0, 4580, 2, 32]"] ;
12 -> 13 ;
14 [label="X[639] <= 39.0\ngini = 0.0313\nsamples = 4557\nvalue = [0, 5, 23, 11, 2, 2, 0, 4485, 1, 28]"] ;
13 -> 14 ;
15 [label="X[151] <= 193.0\ngini = 0.0292\nsamples = 4551\nvalue = [0, 5, 18, 11, 2, 2, 0, 4484, 1, 28]"] ;
14 -> 15 ;
16 [label="gini = 0.0275\nsamples = 4545\nvalue = [0, 5, 15, 10, 2, 2, 0, 4482, 1, 28]"] ;
15 -> 16 ;
17 [label="gini = 0.6111\nsamples = 6\nvalue = [0, 0, 3, 1, 0, 0, 0, 2, 0, 0]"] ;
15 -> 17 ;
18 [label="X[607] <= 26.0\ngini = 0.2778\nsamples = 6\nvalue = [0, 0, 5, 0, 0, 0, 0, 1, 0, 0]"] ;
14 -> 18 ;
19 [label="gini = 0.0\nsamples = 1\nvalue = [0, 0, 0, 0, 0, 0, 0, 1, 0, 0]"] ;
18 -> 19 ;
20 [label="gini = 0.0\nsamples = 5\nvalue = [0, 0, 5, 0, 0, 0, 0, 0, 0, 0]"] ;
18 -> 20 ;
21 [label="X[607] <= 16.0\ngini = 0.4117\nsamples = 126\nvalue = [0, 1, 6, 16, 2, 1, 0, 95, 1, 4]"] ;
13 -> 21 ;
22 [label="X[403] <= 132.5\ngini = 0.3528\nsamples = 119\nvalue = [0, 1, 6, 9, 2, 1, 0, 95, 1, 4]"] ;
21 -> 22 ;
23 [label="gini = 0.2837\nsamples = 113\nvalue = [0, 1, 6, 9, 0, 0, 0, 95, 0, 2]"] ;
22 -> 23 ;
24 [label="gini = 0.7222\nsamples = 6\nvalue = [0, 0, 0, 0, 2, 1, 0, 0, 1, 2]"] ;
22 -> 24 ;
25 [label="gini = 0.0\nsamples = 7\nvalue = [0, 0, 0, 7, 0, 0, 0, 0, 0, 0]"] ;
21 -> 25 ;
26 [label="X[235] <= 28.5\ngini = 0.6122\nsamples = 7\nvalue = [0, 0, 0, 0, 1, 0, 3, 0, 0, 3]"] ;
12 -> 26 ;
27 [label="X[633] <= 74.5\ngini = 0.375\nsamples = 4\nvalue = [0, 0, 0, 0, 1, 0, 3, 0, 0, 0]"] ;
26 -> 27 ;
28 [label="gini = 0.0\nsamples = 3\nvalue = [0, 0, 0, 0, 0, 0, 3, 0, 0, 0]"] ;
27 -> 28 ;
29 [label="gini = 0.0\nsamples = 1\nvalue = [0, 0, 0, 0, 1, 0, 0, 0, 0, 0]"] ;
27 -> 29 ;
30 [label="gini = 0.0\nsamples = 3\nvalue = [0, 0, 0, 0, 0, 0, 0, 0, 0, 3]"] ;
26 -> 30 ;
31 [label="X[265] <= 154.5\ngini = 0.4028\nsamples = 12\nvalue = [0, 0, 0, 0, 0, 1, 0, 2, 0, 9]"] ;
11 -> 31 ;
32 [label="gini = 0.0\nsamples = 9\nvalue = [0, 0, 0, 0, 0, 0, 0, 0, 0, 9]"] ;
31 -> 32 ;
33 [label="X[264] <= 132.5\ngini = 0.4444\nsamples = 3\nvalue = [0, 0, 0, 0, 0, 1, 0, 2, 0, 0]"] ;
31 -> 33 ;
34 [label="gini = 0.0\nsamples = 1\nvalue = [0, 0, 0, 0, 0, 1, 0, 0, 0, 0]"] ;
33 -> 34 ;
35 [label="gini = 0.0\nsamples = 2\nvalue = [0, 0, 0, 0, 0, 0, 0, 2, 0, 0]"] ;
33 -> 35 ;
36 [label="X[291] <= 231.5\ngini = 0.7076\nsamples = 34\nvalue = [0, 0, 0, 1, 6, 2, 0, 14, 1, 10]"] ;
10 -> 36 ;
37 [label="X[209] <= 63.5\ngini = 0.6757\nsamples = 21\nvalue = [0, 0, 0, 1, 6, 2, 0, 1, 1, 10]"] ;
36 -> 37 ;
38 [label="X[491] <= 51.5\ngini = 0.58\nsamples = 10\nvalue = [0, 0, 0, 0, 6, 2, 0, 1, 1, 0]"] ;
37 -> 38 ;
39 [label="X[184] <= 10.0\ngini = 0.625\nsamples = 4\nvalue = [0, 0, 0, 0, 0, 2, 0, 1, 1, 0]"] ;
38 -> 39 ;
40 [label="X[514] <= 43.0\ngini = 0.5\nsamples = 2\nvalue = [0, 0, 0, 0, 0, 0, 0, 1, 1, 0]"] ;
39 -> 40 ;
41 [label="gini = 0.0\nsamples = 1\nvalue = [0, 0, 0, 0, 0, 0, 0, 1, 0, 0]"] ;
40 -> 41 ;
42 [label="gini = 0.0\nsamples = 1\nvalue = [0, 0, 0, 0, 0, 0, 0, 0, 1, 0]"] ;
40 -> 42 ;
43 [label="gini = 0.0\nsamples = 2\nvalue = [0, 0, 0, 0, 0, 2, 0, 0, 0, 0]"] ;
39 -> 43 ;
44 [label="gini = 0.0\nsamples = 6\nvalue = [0, 0, 0, 0, 6, 0, 0, 0, 0, 0]"] ;
38 -> 44 ;
45 [label="X[171] <= 19.0\ngini = 0.1653\nsamples = 11\nvalue = [0, 0, 0, 1, 0, 0, 0, 0, 0, 10]"] ;
37 -> 45 ;
46 [label="gini = 0.0\nsamples = 10\nvalue = [0, 0, 0, 0, 0, 0, 0, 0, 0, 10]"] ;
45 -> 46 ;
47 [label="gini = 0.0\nsamples = 1\nvalue = [0, 0, 0, 1, 0, 0, 0, 0, 0, 0]"] ;
45 -> 47 ;
48 [label="gini = 0.0\nsamples = 13\nvalue = [0, 0, 0, 0, 0, 0, 0, 13, 0, 0]"] ;
36 -> 48 ;
49 [label="X[465] <= 126.5\ngini = 0.2917\nsamples = 12\nvalue = [0, 10, 0, 0, 1, 1, 0, 0, 0, 0]"] ;
9 -> 49 ;
50 [label="gini = 0.0\nsamples = 10\nvalue = [0, 10, 0, 0, 0, 0, 0, 0, 0, 0]"] ;
49 -> 50 ;
51 [label="X[355] <= 61.5\ngini = 0.5\nsamples = 2\nvalue = [0, 0, 0, 0, 1, 1, 0, 0, 0, 0]"] ;
49 -> 51 ;
52 [label="gini = 0.0\nsamples = 1\nvalue = [0, 0, 0, 0, 0, 1, 0, 0, 0, 0]"] ;
51 -> 52 ;
53 [label="gini = 0.0\nsamples = 1\nvalue = [0, 0, 0, 0, 1, 0, 0, 0, 0, 0]"] ;
51 -> 53 ;
54 [label="X[555] <= 77.5\ngini = 0.6467\nsamples = 48\nvalue = [0, 0, 23, 3, 0, 4, 0, 16, 0, 2]"] ;
8 -> 54 ;
55 [label="X[298] <= 14.5\ngini = 0.6834\nsamples = 34\nvalue = [0, 0, 9, 3, 0, 4, 0, 16, 0, 2]"] ;
54 -> 55 ;
56 [label="X[408] <= 11.0\ngini = 0.6281\nsamples = 11\nvalue = [0, 0, 5, 2, 0, 4, 0, 0, 0, 0]"] ;
55 -> 56 ;
57 [label="X[213] <= 45.5\ngini = 0.4444\nsamples = 6\nvalue = [0, 0, 0, 2, 0, 4, 0, 0, 0, 0]"] ;
56 -> 57 ;
58 [label="gini = 0.0\nsamples = 2\nvalue = [0, 0, 0, 2, 0, 0, 0, 0, 0, 0]"] ;
57 -> 58 ;
59 [label="gini = 0.0\nsamples = 4\nvalue = [0, 0, 0, 0, 0, 4, 0, 0, 0, 0]"] ;
57 -> 59 ;
60 [label="gini = 0.0\nsamples = 5\nvalue = [0, 0, 5, 0, 0, 0, 0, 0, 0, 0]"] ;
56 -> 60 ;
61 [label="X[611] <= 2.0\ngini = 0.4764\nsamples = 23\nvalue = [0, 0, 4, 1, 0, 0, 0, 16, 0, 2]"] ;
55 -> 61 ;
62 [label="X[184] <= 55.0\ngini = 0.277\nsamples = 19\nvalue = [0, 0, 1, 0, 0, 0, 0, 16, 0, 2]"] ;
61 -> 62 ;
63 [label="X[181] <= 158.0\ngini = 0.1107\nsamples = 17\nvalue = [0, 0, 1, 0, 0, 0, 0, 16, 0, 0]"] ;
62 -> 63 ;
64 [label="gini = 0.0\nsamples = 16\nvalue = [0, 0, 0, 0, 0, 0, 0, 16, 0, 0]"] ;
63 -> 64 ;
65 [label="gini = 0.0\nsamples = 1\nvalue = [0, 0, 1, 0, 0, 0, 0, 0, 0, 0]"] ;
63 -> 65 ;
66 [label="gini = 0.0\nsamples = 2\nvalue = [0, 0, 0, 0, 0, 0, 0, 0, 0, 2]"] ;
62 -> 66 ;
67 [label="X[235] <= 182.5\ngini = 0.375\nsamples = 4\nvalue = [0, 0, 3, 1, 0, 0, 0, 0, 0, 0]"] ;
61 -> 67 ;
68 [label="gini = 0.0\nsamples = 1\nvalue = [0, 0, 0, 1, 0, 0, 0, 0, 0, 0]"] ;
67 -> 68 ;
69 [label="gini = 0.0\nsamples = 3\nvalue = [0, 0, 3, 0, 0, 0, 0, 0, 0, 0]"] ;
67 -> 69 ;
70 [label="gini = 0.0\nsamples = 14\nvalue = [0, 0, 14, 0, 0, 0, 0, 0, 0, 0]"] ;
54 -> 70 ;
71 [label="X[379] <= 100.5\ngini = 0.674\nsamples = 61\nvalue = [1, 33, 5, 0, 1, 6, 4, 5, 4, 2]"] ;
7 -> 71 ;
72 [label="X[431] <= 158.5\ngini = 0.8182\nsamples = 22\nvalue = [1, 0, 5, 0, 1, 6, 4, 2, 1, 2]"] ;
71 -> 72 ;
73 [label="X[572] <= 158.5\ngini = 0.7778\nsamples = 18\nvalue = [1, 0, 5, 0, 1, 6, 0, 2, 1, 2]"] ;
72 -> 73 ;
74 [label="X[632] <= 113.5\ngini = 0.7219\nsamples = 13\nvalue = [1, 0, 0, 0, 1, 6, 0, 2, 1, 2]"] ;
73 -> 74 ;
75 [label="X[207] <= 37.5\ngini = 0.7778\nsamples = 6\nvalue = [1, 0, 0, 0, 1, 0, 0, 2, 1, 1]"] ;
74 -> 75 ;
76 [label="X[157] <= 127.0\ngini = 0.75\nsamples = 4\nvalue = [1, 0, 0, 0, 1, 0, 0, 0, 1, 1]"] ;
75 -> 76 ;
77 [label="gini = 0.0\nsamples = 1\nvalue = [0, 0, 0, 0, 0, 0, 0, 0, 0, 1]"] ;
76 -> 77 ;
78 [label="X[470] <= 64.0\ngini = 0.6667\nsamples = 3\nvalue = [1, 0, 0, 0, 1, 0, 0, 0, 1, 0]"] ;
76 -> 78 ;
79 [label="X[158] <= 110.5\ngini = 0.5\nsamples = 2\nvalue = [0, 0, 0, 0, 1, 0, 0, 0, 1, 0]"] ;
78 -> 79 ;
80 [label="gini = 0.0\nsamples = 1\nvalue = [0, 0, 0, 0, 1, 0, 0, 0, 0, 0]"] ;
79 -> 80 ;
81 [label="gini = 0.0\nsamples = 1\nvalue = [0, 0, 0, 0, 0, 0, 0, 0, 1, 0]"] ;
79 -> 81 ;
82 [label="gini = 0.0\nsamples = 1\nvalue = [1, 0, 0, 0, 0, 0, 0, 0, 0, 0]"] ;
78 -> 82 ;
83 [label="gini = 0.0\nsamples = 2\nvalue = [0, 0, 0, 0, 0, 0, 0, 2, 0, 0]"] ;
75 -> 83 ;
84 [label="X[211] <= 75.5\ngini = 0.2449\nsamples = 7\nvalue = [0, 0, 0, 0, 0, 6, 0, 0, 0, 1]"] ;
74 -> 84 ;
85 [label="gini = 0.0\nsamples = 1\nvalue = [0, 0, 0, 0, 0, 0, 0, 0, 0, 1]"] ;
84 -> 85 ;
86 [label="gini = 0.0\nsamples = 6\nvalue = [0, 0, 0, 0, 0, 6, 0, 0, 0, 0]"] ;
84 -> 86 ;
87 [label="gini = 0.0\nsamples = 5\nvalue = [0, 0, 5, 0, 0, 0, 0, 0, 0, 0]"] ;
73 -> 87 ;
88 [label="gini = 0.0\nsamples = 4\nvalue = [0, 0, 0, 0, 0, 0, 4, 0, 0, 0]"] ;
72 -> 88 ;
89 [label="X[433] <= 80.5\ngini = 0.2722\nsamples = 39\nvalue = [0, 33, 0, 0, 0, 0, 0, 3, 3, 0]"] ;
71 -> 89 ;
90 [label="X[234] <= 132.0\ngini = 0.1078\nsamples = 35\nvalue = [0, 33, 0, 0, 0, 0, 0, 2, 0, 0]"] ;
89 -> 90 ;
91 [label="gini = 0.0\nsamples = 33\nvalue = [0, 33, 0, 0, 0, 0, 0, 0, 0, 0]"] ;
90 -> 91 ;
92 [label="gini = 0.0\nsamples = 2\nvalue = [0, 0, 0, 0, 0, 0, 0, 2, 0, 0]"] ;
90 -> 92 ;
93 [label="X[463] <= 151.5\ngini = 0.375\nsamples = 4\nvalue = [0, 0, 0, 0, 0, 0, 0, 1, 3, 0]"] ;
89 -> 93 ;
94 [label="gini = 0.0\nsamples = 1\nvalue = [0, 0, 0, 0, 0, 0, 0, 1, 0, 0]"] ;
93 -> 94 ;
95 [label="gini = 0.0\nsamples = 3\nvalue = [0, 0, 0, 0, 0, 0, 0, 0, 3, 0]"] ;
93 -> 95 ;
96 [label="X[408] <= 15.0\ngini = 0.2262\nsamples = 89\nvalue = [78, 2, 0, 4, 0, 5, 0, 0, 0, 0]"] ;
6 -> 96 ;
97 [label="X[203] <= 5.0\ngini = 0.0253\nsamples = 78\nvalue = [77, 0, 0, 0, 0, 1, 0, 0, 0, 0]"] ;
96 -> 97 ;
98 [label="gini = 0.0\nsamples = 77\nvalue = [77, 0, 0, 0, 0, 0, 0, 0, 0, 0]"] ;
97 -> 98 ;
99 [label="gini = 0.0\nsamples = 1\nvalue = [0, 0, 0, 0, 0, 1, 0, 0, 0, 0]"] ;
97 -> 99 ;
100 [label="X[631] <= 25.0\ngini = 0.6942\nsamples = 11\nvalue = [1, 2, 0, 4, 0, 4, 0, 0, 0, 0]"] ;
96 -> 100 ;
101 [label="gini = 0.0\nsamples = 4\nvalue = [0, 0, 0, 4, 0, 0, 0, 0, 0, 0]"] ;
100 -> 101 ;
102 [label="X[465] <= 12.5\ngini = 0.5714\nsamples = 7\nvalue = [1, 2, 0, 0, 0, 4, 0, 0, 0, 0]"] ;
100 -> 102 ;
103 [label="X[317] <= 234.0\ngini = 0.4444\nsamples = 3\nvalue = [1, 2, 0, 0, 0, 0, 0, 0, 0, 0]"] ;
102 -> 103 ;
104 [label="gini = 0.0\nsamples = 1\nvalue = [1, 0, 0, 0, 0, 0, 0, 0, 0, 0]"] ;
103 -> 104 ;
105 [label="gini = 0.0\nsamples = 2\nvalue = [0, 2, 0, 0, 0, 0, 0, 0, 0, 0]"] ;
103 -> 105 ;
106 [label="gini = 0.0\nsamples = 4\nvalue = [0, 0, 0, 0, 0, 4, 0, 0, 0, 0]"] ;
102 -> 106 ;
107 [label="X[571] <= 5.0\ngini = 0.6766\nsamples = 489\nvalue = [52, 20, 261, 52, 1, 42, 12, 38, 6, 5]"] ;
5 -> 107 ;
108 [label="X[426] <= 10.0\ngini = 0.8269\nsamples = 177\nvalue = [47, 13, 20, 40, 1, 27, 8, 15, 1, 5]"] ;
107 -> 108 ;
109 [label="X[654] <= 7.5\ngini = 0.8082\nsamples = 128\nvalue = [2, 13, 19, 40, 1, 27, 6, 15, 1, 4]"] ;
108 -> 109 ;
110 [label="X[203] <= 28.0\ngini = 0.7886\nsamples = 47\nvalue = [0, 8, 16, 1, 1, 2, 6, 10, 1, 2]"] ;
109 -> 110 ;
111 [label="X[236] <= 239.0\ngini = 0.8117\nsamples = 31\nvalue = [0, 8, 3, 1, 1, 1, 6, 8, 1, 2]"] ;
110 -> 111 ;
112 [label="X[180] <= 205.5\ngini = 0.768\nsamples = 25\nvalue = [0, 8, 3, 1, 1, 1, 0, 8, 1, 2]"] ;
111 -> 112 ;
113 [label="X[434] <= 5.0\ngini = 0.5562\nsamples = 13\nvalue = [0, 8, 3, 1, 0, 0, 0, 0, 0, 1]"] ;
112 -> 113 ;
114 [label="X[658] <= 254.5\ngini = 0.375\nsamples = 4\nvalue = [0, 0, 3, 1, 0, 0, 0, 0, 0, 0]"] ;
113 -> 114 ;
115 [label="gini = 0.0\nsamples = 3\nvalue = [0, 0, 3, 0, 0, 0, 0, 0, 0, 0]"] ;
114 -> 115 ;
116 [label="gini = 0.0\nsamples = 1\nvalue = [0, 0, 0, 1, 0, 0, 0, 0, 0, 0]"] ;
114 -> 116 ;
117 [label="X[347] <= 120.0\ngini = 0.1975\nsamples = 9\nvalue = [0, 8, 0, 0, 0, 0, 0, 0, 0, 1]"] ;
113 -> 117 ;
118 [label="gini = 0.0\nsamples = 8\nvalue = [0, 8, 0, 0, 0, 0, 0, 0, 0, 0]"] ;
117 -> 118 ;
119 [label="gini = 0.0\nsamples = 1\nvalue = [0, 0, 0, 0, 0, 0, 0, 0, 0, 1]"] ;
117 -> 119 ;
120 [label="X[347] <= 163.5\ngini = 0.5278\nsamples = 12\nvalue = [0, 0, 0, 0, 1, 1, 0, 8, 1, 1]"] ;
112 -> 120 ;
121 [label="gini = 0.0\nsamples = 8\nvalue = [0, 0, 0, 0, 0, 0, 0, 8, 0, 0]"] ;
120 -> 121 ;
122 [label="X[348] <= 54.0\ngini = 0.75\nsamples = 4\nvalue = [0, 0, 0, 0, 1, 1, 0, 0, 1, 1]"] ;
120 -> 122 ;
123 [label="gini = 0.0\nsamples = 1\nvalue = [0, 0, 0, 0, 0, 0, 0, 0, 1, 0]"] ;
122 -> 123 ;
124 [label="X[233] <= 20.5\ngini = 0.6667\nsamples = 3\nvalue = [0, 0, 0, 0, 1, 1, 0, 0, 0, 1]"] ;
122 -> 124 ;
125 [label="gini = 0.0\nsamples = 1\nvalue = [0, 0, 0, 0, 1, 0, 0, 0, 0, 0]"] ;
124 -> 125 ;
126 [label="X[177] <= 31.0\ngini = 0.5\nsamples = 2\nvalue = [0, 0, 0, 0, 0, 1, 0, 0, 0, 1]"] ;
124 -> 126 ;
127 [label="gini = 0.0\nsamples = 1\nvalue = [0, 0, 0, 0, 0, 0, 0, 0, 0, 1]"] ;
126 -> 127 ;
128 [label="gini = 0.0\nsamples = 1\nvalue = [0, 0, 0, 0, 0, 1, 0, 0, 0, 0]"] ;
126 -> 128 ;
129 [label="gini = 0.0\nsamples = 6\nvalue = [0, 0, 0, 0, 0, 0, 6, 0, 0, 0]"] ;
111 -> 129 ;
130 [label="X[211] <= 77.0\ngini = 0.3203\nsamples = 16\nvalue = [0, 0, 13, 0, 0, 1, 0, 2, 0, 0]"] ;
110 -> 130 ;
131 [label="X[656] <= 113.0\ngini = 0.5\nsamples = 2\nvalue = [0, 0, 0, 0, 0, 1, 0, 1, 0, 0]"] ;
130 -> 131 ;
132 [label="gini = 0.0\nsamples = 1\nvalue = [0, 0, 0, 0, 0, 0, 0, 1, 0, 0]"] ;
131 -> 132 ;
133 [label="gini = 0.0\nsamples = 1\nvalue = [0, 0, 0, 0, 0, 1, 0, 0, 0, 0]"] ;
131 -> 133 ;
134 [label="X[551] <= 253.5\ngini = 0.1327\nsamples = 14\nvalue = [0, 0, 13, 0, 0, 0, 0, 1, 0, 0]"] ;
130 -> 134 ;
135 [label="gini = 0.0\nsamples = 13\nvalue = [0, 0, 13, 0, 0, 0, 0, 0, 0, 0]"] ;
134 -> 135 ;
136 [label="gini = 0.0\nsamples = 1\nvalue = [0, 0, 0, 0, 0, 0, 0, 1, 0, 0]"] ;
134 -> 136 ;
137 [label="X[241] <= 3.5\ngini = 0.6627\nsamples = 81\nvalue = [2, 5, 3, 39, 0, 25, 0, 5, 0, 2]"] ;
109 -> 137 ;
138 [label="X[238] <= 107.0\ngini = 0.5878\nsamples = 35\nvalue = [1, 1, 1, 10, 0, 20, 0, 1, 0, 1]"] ;
137 -> 138 ;
139 [label="X[245] <= 1.5\ngini = 0.3698\nsamples = 26\nvalue = [1, 0, 0, 5, 0, 20, 0, 0, 0, 0]"] ;
138 -> 139 ;
140 [label="X[150] <= 244.5\ngini = 0.1653\nsamples = 22\nvalue = [0, 0, 0, 2, 0, 20, 0, 0, 0, 0]"] ;
139 -> 140 ;
141 [label="gini = 0.0\nsamples = 20\nvalue = [0, 0, 0, 0, 0, 20, 0, 0, 0, 0]"] ;
140 -> 141 ;
142 [label="gini = 0.0\nsamples = 2\nvalue = [0, 0, 0, 2, 0, 0, 0, 0, 0, 0]"] ;
140 -> 142 ;
143 [label="X[661] <= 17.5\ngini = 0.375\nsamples = 4\nvalue = [1, 0, 0, 3, 0, 0, 0, 0, 0, 0]"] ;
139 -> 143 ;
144 [label="gini = 0.0\nsamples = 1\nvalue = [1, 0, 0, 0, 0, 0, 0, 0, 0, 0]"] ;
143 -> 144 ;
145 [label="gini = 0.0\nsamples = 3\nvalue = [0, 0, 0, 3, 0, 0, 0, 0, 0, 0]"] ;
143 -> 145 ;
146 [label="X[437] <= 2.0\ngini = 0.642\nsamples = 9\nvalue = [0, 1, 1, 5, 0, 0, 0, 1, 0, 1]"] ;
138 -> 146 ;
147 [label="gini = 0.0\nsamples = 5\nvalue = [0, 0, 0, 5, 0, 0, 0, 0, 0, 0]"] ;
146 -> 147 ;
148 [label="X[683] <= 6.5\ngini = 0.75\nsamples = 4\nvalue = [0, 1, 1, 0, 0, 0, 0, 1, 0, 1]"] ;
146 -> 148 ;
149 [label="X[122] <= 100.5\ngini = 0.5\nsamples = 2\nvalue = [0, 1, 1, 0, 0, 0, 0, 0, 0, 0]"] ;
148 -> 149 ;
150 [label="gini = 0.0\nsamples = 1\nvalue = [0, 1, 0, 0, 0, 0, 0, 0, 0, 0]"] ;
149 -> 150 ;
151 [label="gini = 0.0\nsamples = 1\nvalue = [0, 0, 1, 0, 0, 0, 0, 0, 0, 0]"] ;
149 -> 151 ;
152 [label="X[429] <= 31.5\ngini = 0.5\nsamples = 2\nvalue = [0, 0, 0, 0, 0, 0, 0, 1, 0, 1]"] ;
148 -> 152 ;
153 [label="gini = 0.0\nsamples = 1\nvalue = [0, 0, 0, 0, 0, 0, 0, 0, 0, 1]"] ;
152 -> 153 ;
154 [label="gini = 0.0\nsamples = 1\nvalue = [0, 0, 0, 0, 0, 0, 0, 1, 0, 0]"] ;
152 -> 154 ;
155 [label="X[519] <= 144.0\ngini = 0.5728\nsamples = 46\nvalue = [1, 4, 2, 29, 0, 5, 0, 4, 0, 1]"] ;
137 -> 155 ;
156 [label="X[260] <= 140.0\ngini = 0.3371\nsamples = 31\nvalue = [1, 0, 1, 25, 0, 3, 0, 0, 0, 1]"] ;
155 -> 156 ;
157 [label="X[570] <= 128.0\ngini = 0.145\nsamples = 26\nvalue = [0, 0, 0, 24, 0, 1, 0, 0, 0, 1]"] ;
156 -> 157 ;
158 [label="X[483] <= 145.5\ngini = 0.0768\nsamples = 25\nvalue = [0, 0, 0, 24, 0, 1, 0, 0, 0, 0]"] ;
157 -> 158 ;
159 [label="gini = 0.0\nsamples = 24\nvalue = [0, 0, 0, 24, 0, 0, 0, 0, 0, 0]"] ;
158 -> 159 ;
160 [label="gini = 0.0\nsamples = 1\nvalue = [0, 0, 0, 0, 0, 1, 0, 0, 0, 0]"] ;
158 -> 160 ;
161 [label="gini = 0.0\nsamples = 1\nvalue = [0, 0, 0, 0, 0, 0, 0, 0, 0, 1]"] ;
157 -> 161 ;
162 [label="X[626] <= 224.0\ngini = 0.72\nsamples = 5\nvalue = [1, 0, 1, 1, 0, 2, 0, 0, 0, 0]"] ;
156 -> 162 ;
163 [label="X[537] <= 118.5\ngini = 0.6667\nsamples = 3\nvalue = [1, 0, 1, 1, 0, 0, 0, 0, 0, 0]"] ;
162 -> 163 ;
164 [label="X[635] <= 76.5\ngini = 0.5\nsamples = 2\nvalue = [0, 0, 1, 1, 0, 0, 0, 0, 0, 0]"] ;
163 -> 164 ;
165 [label="gini = 0.0\nsamples = 1\nvalue = [0, 0, 0, 1, 0, 0, 0, 0, 0, 0]"] ;
164 -> 165 ;
166 [label="gini = 0.0\nsamples = 1\nvalue = [0, 0, 1, 0, 0, 0, 0, 0, 0, 0]"] ;
164 -> 166 ;
167 [label="gini = 0.0\nsamples = 1\nvalue = [1, 0, 0, 0, 0, 0, 0, 0, 0, 0]"] ;
163 -> 167 ;
168 [label="gini = 0.0\nsamples = 2\nvalue = [0, 0, 0, 0, 0, 2, 0, 0, 0, 0]"] ;
162 -> 168 ;
169 [label="X[127] <= 39.5\ngini = 0.7644\nsamples = 15\nvalue = [0, 4, 1, 4, 0, 2, 0, 4, 0, 0]"] ;
155 -> 169 ;
170 [label="X[546] <= 220.5\ngini = 0.6942\nsamples = 11\nvalue = [0, 0, 1, 4, 0, 2, 0, 4, 0, 0]"] ;
169 -> 170 ;
171 [label="X[180] <= 82.0\ngini = 0.5714\nsamples = 7\nvalue = [0, 0, 1, 4, 0, 2, 0, 0, 0, 0]"] ;
170 -> 171 ;
172 [label="X[625] <= 5.0\ngini = 0.4444\nsamples = 3\nvalue = [0, 0, 1, 0, 0, 2, 0, 0, 0, 0]"] ;
171 -> 172 ;
173 [label="gini = 0.0\nsamples = 1\nvalue = [0, 0, 1, 0, 0, 0, 0, 0, 0, 0]"] ;
172 -> 173 ;
174 [label="gini = 0.0\nsamples = 2\nvalue = [0, 0, 0, 0, 0, 2, 0, 0, 0, 0]"] ;
172 -> 174 ;
175 [label="gini = 0.0\nsamples = 4\nvalue = [0, 0, 0, 4, 0, 0, 0, 0, 0, 0]"] ;
171 -> 175 ;
176 [label="gini = 0.0\nsamples = 4\nvalue = [0, 0, 0, 0, 0, 0, 0, 4, 0, 0]"] ;
170 -> 176 ;
177 [label="gini = 0.0\nsamples = 4\nvalue = [0, 4, 0, 0, 0, 0, 0, 0, 0, 0]"] ;
169 -> 177 ;
178 [label="X[594] <= 27.5\ngini = 0.1541\nsamples = 49\nvalue = [45, 0, 1, 0, 0, 0, 2, 0, 0, 1]"] ;
108 -> 178 ;
179 [label="X[660] <= 4.5\ngini = 0.625\nsamples = 4\nvalue = [0, 0, 1, 0, 0, 0, 2, 0, 0, 1]"] ;
178 -> 179 ;
180 [label="gini = 0.0\nsamples = 2\nvalue = [0, 0, 0, 0, 0, 0, 2, 0, 0, 0]"] ;
179 -> 180 ;
181 [label="X[577] <= 243.5\ngini = 0.5\nsamples = 2\nvalue = [0, 0, 1, 0, 0, 0, 0, 0, 0, 1]"] ;
179 -> 181 ;
182 [label="gini = 0.0\nsamples = 1\nvalue = [0, 0, 0, 0, 0, 0, 0, 0, 0, 1]"] ;
181 -> 182 ;
183 [label="gini = 0.0\nsamples = 1\nvalue = [0, 0, 1, 0, 0, 0, 0, 0, 0, 0]"] ;
181 -> 183 ;
184 [label="gini = 0.0\nsamples = 45\nvalue = [45, 0, 0, 0, 0, 0, 0, 0, 0, 0]"] ;
178 -> 184 ;
185 [label="X[347] <= 7.0\ngini = 0.3929\nsamples = 312\nvalue = [5, 7, 241, 12, 0, 15, 4, 23, 5, 0]"] ;
107 -> 185 ;
186 [label="X[682] <= 159.0\ngini = 0.2344\nsamples = 264\nvalue = [3, 3, 230, 6, 0, 1, 1, 20, 0, 0]"] ;
185 -> 186 ;
187 [label="X[565] <= 93.0\ngini = 0.1701\nsamples = 233\nvalue = [3, 3, 212, 5, 0, 1, 1, 8, 0, 0]"] ;
186 -> 187 ;
188 [label="X[596] <= 211.0\ngini = 0.1412\nsamples = 229\nvalue = [0, 3, 212, 4, 0, 1, 1, 8, 0, 0]"] ;
187 -> 188 ;
189 [label="X[679] <= 253.5\ngini = 0.119\nsamples = 225\nvalue = [0, 0, 211, 4, 0, 1, 1, 8, 0, 0]"] ;
188 -> 189 ;
190 [label="X[321] <= 53.5\ngini = 0.1036\nsamples = 223\nvalue = [0, 0, 211, 4, 0, 1, 1, 6, 0, 0]"] ;
189 -> 190 ;
191 [label="X[349] <= 29.5\ngini = 0.0792\nsamples = 220\nvalue = [0, 0, 211, 3, 0, 0, 0, 6, 0, 0]"] ;
190 -> 191 ;
192 [label="X[372] <= 230.0\ngini = 0.0709\nsamples = 219\nvalue = [0, 0, 211, 2, 0, 0, 0, 6, 0, 0]"] ;
191 -> 192 ;
193 [label="X[676] <= 116.5\ngini = 0.0626\nsamples = 218\nvalue = [0, 0, 211, 2, 0, 0, 0, 5, 0, 0]"] ;
192 -> 193 ;
194 [label="gini = 0.0541\nsamples = 217\nvalue = [0, 0, 211, 2, 0, 0, 0, 4, 0, 0]"] ;
193 -> 194 ;
195 [label="gini = 0.0\nsamples = 1\nvalue = [0, 0, 0, 0, 0, 0, 0, 1, 0, 0]"] ;
193 -> 195 ;
196 [label="gini = 0.0\nsamples = 1\nvalue = [0, 0, 0, 0, 0, 0, 0, 1, 0, 0]"] ;
192 -> 196 ;
197 [label="gini = 0.0\nsamples = 1\nvalue = [0, 0, 0, 1, 0, 0, 0, 0, 0, 0]"] ;
191 -> 197 ;
198 [label="X[213] <= 91.5\ngini = 0.6667\nsamples = 3\nvalue = [0, 0, 0, 1, 0, 1, 1, 0, 0, 0]"] ;
190 -> 198 ;
199 [label="X[207] <= 2.0\ngini = 0.5\nsamples = 2\nvalue = [0, 0, 0, 1, 0, 0, 1, 0, 0, 0]"] ;
198 -> 199 ;
200 [label="gini = 0.0\nsamples = 1\nvalue = [0, 0, 0, 0, 0, 0, 1, 0, 0, 0]"] ;
199 -> 200 ;
201 [label="gini = 0.0\nsamples = 1\nvalue = [0, 0, 0, 1, 0, 0, 0, 0, 0, 0]"] ;
199 -> 201 ;
202 [label="gini = 0.0\nsamples = 1\nvalue = [0, 0, 0, 0, 0, 1, 0, 0, 0, 0]"] ;
198 -> 202 ;
203 [label="gini = 0.0\nsamples = 2\nvalue = [0, 0, 0, 0, 0, 0, 0, 2, 0, 0]"] ;
189 -> 203 ;
204 [label="X[650] <= 2.0\ngini = 0.375\nsamples = 4\nvalue = [0, 3, 1, 0, 0, 0, 0, 0, 0, 0]"] ;
188 -> 204 ;
205 [label="gini = 0.0\nsamples = 3\nvalue = [0, 3, 0, 0, 0, 0, 0, 0, 0, 0]"] ;
204 -> 205 ;
206 [label="gini = 0.0\nsamples = 1\nvalue = [0, 0, 1, 0, 0, 0, 0, 0, 0, 0]"] ;
204 -> 206 ;
207 [label="X[325] <= 126.5\ngini = 0.375\nsamples = 4\nvalue = [3, 0, 0, 1, 0, 0, 0, 0, 0, 0]"] ;
187 -> 207 ;
208 [label="gini = 0.0\nsamples = 3\nvalue = [3, 0, 0, 0, 0, 0, 0, 0, 0, 0]"] ;
207 -> 208 ;
209 [label="gini = 0.0\nsamples = 1\nvalue = [0, 0, 0, 1, 0, 0, 0, 0, 0, 0]"] ;
207 -> 209 ;
210 [label="X[577] <= 52.0\ngini = 0.512\nsamples = 31\nvalue = [0, 0, 18, 1, 0, 0, 0, 12, 0, 0]"] ;
186 -> 210 ;
211 [label="X[570] <= 171.5\ngini = 0.375\nsamples = 16\nvalue = [0, 0, 4, 0, 0, 0, 0, 12, 0, 0]"] ;
210 -> 211 ;
212 [label="gini = 0.0\nsamples = 12\nvalue = [0, 0, 0, 0, 0, 0, 0, 12, 0, 0]"] ;
211 -> 212 ;
213 [label="gini = 0.0\nsamples = 4\nvalue = [0, 0, 4, 0, 0, 0, 0, 0, 0, 0]"] ;
211 -> 213 ;
214 [label="X[351] <= 156.5\ngini = 0.1244\nsamples = 15\nvalue = [0, 0, 14, 1, 0, 0, 0, 0, 0, 0]"] ;
210 -> 214 ;
215 [label="gini = 0.0\nsamples = 14\nvalue = [0, 0, 14, 0, 0, 0, 0, 0, 0, 0]"] ;
214 -> 215 ;
216 [label="gini = 0.0\nsamples = 1\nvalue = [0, 0, 0, 1, 0, 0, 0, 0, 0, 0]"] ;
214 -> 216 ;
217 [label="X[237] <= 1.5\ngini = 0.8194\nsamples = 48\nvalue = [2, 4, 11, 6, 0, 14, 3, 3, 5, 0]"] ;
185 -> 217 ;
218 [label="X[239] <= 35.0\ngini = 0.54\nsamples = 20\nvalue = [1, 0, 0, 3, 0, 13, 0, 1, 2, 0]"] ;
217 -> 218 ;
219 [label="X[464] <= 168.0\ngini = 0.1327\nsamples = 14\nvalue = [1, 0, 0, 0, 0, 13, 0, 0, 0, 0]"] ;
218 -> 219 ;
220 [label="gini = 0.0\nsamples = 13\nvalue = [0, 0, 0, 0, 0, 13, 0, 0, 0, 0]"] ;
219 -> 220 ;
221 [label="gini = 0.0\nsamples = 1\nvalue = [1, 0, 0, 0, 0, 0, 0, 0, 0, 0]"] ;
219 -> 221 ;
222 [label="X[290] <= 129.5\ngini = 0.6111\nsamples = 6\nvalue = [0, 0, 0, 3, 0, 0, 0, 1, 2, 0]"] ;
218 -> 222 ;
223 [label="gini = 0.0\nsamples = 3\nvalue = [0, 0, 0, 3, 0, 0, 0, 0, 0, 0]"] ;
222 -> 223 ;
224 [label="X[519] <= 155.5\ngini = 0.4444\nsamples = 3\nvalue = [0, 0, 0, 0, 0, 0, 0, 1, 2, 0]"] ;
222 -> 224 ;
225 [label="gini = 0.0\nsamples = 2\nvalue = [0, 0, 0, 0, 0, 0, 0, 0, 2, 0]"] ;
224 -> 225 ;
226 [label="gini = 0.0\nsamples = 1\nvalue = [0, 0, 0, 0, 0, 0, 0, 1, 0, 0]"] ;
224 -> 226 ;
227 [label="X[235] <= 189.5\ngini = 0.7832\nsamples = 28\nvalue = [1, 4, 11, 3, 0, 1, 3, 2, 3, 0]"] ;
217 -> 227 ;
228 [label="X[346] <= 1.0\ngini = 0.8367\nsamples = 14\nvalue = [1, 3, 0, 2, 0, 1, 3, 2, 2, 0]"] ;
227 -> 228 ;
229 [label="gini = 0.0\nsamples = 3\nvalue = [0, 0, 0, 0, 0, 0, 3, 0, 0, 0]"] ;
228 -> 229 ;
230 [label="X[99] <= 1.0\ngini = 0.8099\nsamples = 11\nvalue = [1, 3, 0, 2, 0, 1, 0, 2, 2, 0]"] ;
228 -> 230 ;
231 [label="X[322] <= 99.5\ngini = 0.7812\nsamples = 8\nvalue = [1, 0, 0, 2, 0, 1, 0, 2, 2, 0]"] ;
230 -> 231 ;
232 [label="X[576] <= 37.5\ngini = 0.7222\nsamples = 6\nvalue = [1, 0, 0, 0, 0, 1, 0, 2, 2, 0]"] ;
231 -> 232 ;
233 [label="gini = 0.0\nsamples = 2\nvalue = [0, 0, 0, 0, 0, 0, 0, 2, 0, 0]"] ;
232 -> 233 ;
234 [label="X[462] <= 111.0\ngini = 0.625\nsamples = 4\nvalue = [1, 0, 0, 0, 0, 1, 0, 0, 2, 0]"] ;
232 -> 234 ;
235 [label="X[318] <= 252.5\ngini = 0.5\nsamples = 2\nvalue = [1, 0, 0, 0, 0, 1, 0, 0, 0, 0]"] ;
234 -> 235 ;
236 [label="gini = 0.0\nsamples = 1\nvalue = [0, 0, 0, 0, 0, 1, 0, 0, 0, 0]"] ;
235 -> 236 ;
237 [label="gini = 0.0\nsamples = 1\nvalue = [1, 0, 0, 0, 0, 0, 0, 0, 0, 0]"] ;
235 -> 237 ;
238 [label="gini = 0.0\nsamples = 2\nvalue = [0, 0, 0, 0, 0, 0, 0, 0, 2, 0]"] ;
234 -> 238 ;
239 [label="gini = 0.0\nsamples = 2\nvalue = [0, 0, 0, 2, 0, 0, 0, 0, 0, 0]"] ;
231 -> 239 ;
240 [label="gini = 0.0\nsamples = 3\nvalue = [0, 3, 0, 0, 0, 0, 0, 0, 0, 0]"] ;
230 -> 240 ;
241 [label="X[319] <= 129.0\ngini = 0.3673\nsamples = 14\nvalue = [0, 1, 11, 1, 0, 0, 0, 0, 1, 0]"] ;
227 -> 241 ;
242 [label="X[374] <= 27.0\ngini = 0.6667\nsamples = 3\nvalue = [0, 1, 0, 1, 0, 0, 0, 0, 1, 0]"] ;
241 -> 242 ;
243 [label="gini = 0.0\nsamples = 1\nvalue = [0, 1, 0, 0, 0, 0, 0, 0, 0, 0]"] ;
242 -> 243 ;
244 [label="X[269] <= 126.5\ngini = 0.5\nsamples = 2\nvalue = [0, 0, 0, 1, 0, 0, 0, 0, 1, 0]"] ;
242 -> 244 ;
245 [label="gini = 0.0\nsamples = 1\nvalue = [0, 0, 0, 0, 0, 0, 0, 0, 1, 0]"] ;
244 -> 245 ;
246 [label="gini = 0.0\nsamples = 1\nvalue = [0, 0, 0, 1, 0, 0, 0, 0, 0, 0]"] ;
244 -> 246 ;
247 [label="gini = 0.0\nsamples = 11\nvalue = [0, 0, 11, 0, 0, 0, 0, 0, 0, 0]"] ;
241 -> 247 ;
248 [label="X[211] <= 53.5\ngini = 0.7866\nsamples = 1282\nvalue = [116, 0, 83, 6, 322, 28, 147, 148, 5, 427]"] ;
4 -> 248 ;
249 [label="X[487] <= 135.5\ngini = 0.7224\nsamples = 622\nvalue = [32, 0, 46, 0, 280, 15, 139, 68, 1, 41]"] ;
248 -> 249 ;
250 [label="X[514] <= 0.5\ngini = 0.7312\nsamples = 268\nvalue = [27, 0, 12, 0, 28, 9, 120, 53, 0, 19]"] ;
249 -> 250 ;
251 [label="X[487] <= 6.5\ngini = 0.4606\nsamples = 72\nvalue = [3, 0, 3, 0, 3, 4, 0, 52, 0, 7]"] ;
250 -> 251 ;
252 [label="X[152] <= 43.0\ngini = 0.216\nsamples = 59\nvalue = [3, 0, 0, 0, 0, 4, 0, 52, 0, 0]"] ;
251 -> 252 ;
253 [label="X[570] <= 125.0\ngini = 0.037\nsamples = 53\nvalue = [0, 0, 0, 0, 0, 1, 0, 52, 0, 0]"] ;
252 -> 253 ;
254 [label="gini = 0.0\nsamples = 52\nvalue = [0, 0, 0, 0, 0, 0, 0, 52, 0, 0]"] ;
253 -> 254 ;
255 [label="gini = 0.0\nsamples = 1\nvalue = [0, 0, 0, 0, 0, 1, 0, 0, 0, 0]"] ;
253 -> 255 ;
256 [label="X[321] <= 64.5\ngini = 0.5\nsamples = 6\nvalue = [3, 0, 0, 0, 0, 3, 0, 0, 0, 0]"] ;
252 -> 256 ;
257 [label="gini = 0.0\nsamples = 3\nvalue = [3, 0, 0, 0, 0, 0, 0, 0, 0, 0]"] ;
256 -> 257 ;
258 [label="gini = 0.0\nsamples = 3\nvalue = [0, 0, 0, 0, 0, 3, 0, 0, 0, 0]"] ;
256 -> 258 ;
259 [label="X[289] <= 74.5\ngini = 0.6036\nsamples = 13\nvalue = [0, 0, 3, 0, 3, 0, 0, 0, 0, 7]"] ;
251 -> 259 ;
260 [label="X[594] <= 10.5\ngini = 0.5\nsamples = 6\nvalue = [0, 0, 3, 0, 3, 0, 0, 0, 0, 0]"] ;
259 -> 260 ;
261 [label="gini = 0.0\nsamples = 3\nvalue = [0, 0, 0, 0, 3, 0, 0, 0, 0, 0]"] ;
260 -> 261 ;
262 [label="gini = 0.0\nsamples = 3\nvalue = [0, 0, 3, 0, 0, 0, 0, 0, 0, 0]"] ;
260 -> 262 ;
263 [label="gini = 0.0\nsamples = 7\nvalue = [0, 0, 0, 0, 0, 0, 0, 0, 0, 7]"] ;
259 -> 263 ;
264 [label="X[463] <= 14.5\ngini = 0.5874\nsamples = 196\nvalue = [24, 0, 9, 0, 25, 5, 120, 1, 0, 12]"] ;
250 -> 264 ;
265 [label="X[466] <= 0.5\ngini = 0.7534\nsamples = 62\nvalue = [24, 0, 2, 0, 12, 4, 12, 0, 0, 8]"] ;
264 -> 265 ;
266 [label="X[571] <= 246.0\ngini = 0.3444\nsamples = 30\nvalue = [24, 0, 0, 0, 1, 2, 3, 0, 0, 0]"] ;
265 -> 266 ;
267 [label="X[464] <= 99.5\ngini = 0.0799\nsamples = 24\nvalue = [23, 0, 0, 0, 1, 0, 0, 0, 0, 0]"] ;
266 -> 267 ;
268 [label="gini = 0.0\nsamples = 23\nvalue = [23, 0, 0, 0, 0, 0, 0, 0, 0, 0]"] ;
267 -> 268 ;
269 [label="gini = 0.0\nsamples = 1\nvalue = [0, 0, 0, 0, 1, 0, 0, 0, 0, 0]"] ;
267 -> 269 ;
270 [label="X[628] <= 20.5\ngini = 0.6111\nsamples = 6\nvalue = [1, 0, 0, 0, 0, 2, 3, 0, 0, 0]"] ;
266 -> 270 ;
271 [label="gini = 0.0\nsamples = 3\nvalue = [0, 0, 0, 0, 0, 0, 3, 0, 0, 0]"] ;
270 -> 271 ;
272 [label="X[399] <= 212.5\ngini = 0.4444\nsamples = 3\nvalue = [1, 0, 0, 0, 0, 2, 0, 0, 0, 0]"] ;
270 -> 272 ;
273 [label="gini = 0.0\nsamples = 2\nvalue = [0, 0, 0, 0, 0, 2, 0, 0, 0, 0]"] ;
272 -> 273 ;
274 [label="gini = 0.0\nsamples = 1\nvalue = [1, 0, 0, 0, 0, 0, 0, 0, 0, 0]"] ;
272 -> 274 ;
275 [label="X[372] <= 3.5\ngini = 0.7324\nsamples = 32\nvalue = [0, 0, 2, 0, 11, 2, 9, 0, 0, 8]"] ;
265 -> 275 ;
276 [label="X[148] <= 4.5\ngini = 0.6122\nsamples = 14\nvalue = [0, 0, 2, 0, 2, 2, 0, 0, 0, 8]"] ;
275 -> 276 ;
277 [label="X[219] <= 8.0\ngini = 0.1975\nsamples = 9\nvalue = [0, 0, 0, 0, 0, 1, 0, 0, 0, 8]"] ;
276 -> 277 ;
278 [label="gini = 0.0\nsamples = 8\nvalue = [0, 0, 0, 0, 0, 0, 0, 0, 0, 8]"] ;
277 -> 278 ;
279 [label="gini = 0.0\nsamples = 1\nvalue = [0, 0, 0, 0, 0, 1, 0, 0, 0, 0]"] ;
277 -> 279 ;
280 [label="X[213] <= 30.0\ngini = 0.64\nsamples = 5\nvalue = [0, 0, 2, 0, 2, 1, 0, 0, 0, 0]"] ;
276 -> 280 ;
281 [label="X[627] <= 8.0\ngini = 0.4444\nsamples = 3\nvalue = [0, 0, 0, 0, 2, 1, 0, 0, 0, 0]"] ;
280 -> 281 ;
282 [label="gini = 0.0\nsamples = 2\nvalue = [0, 0, 0, 0, 2, 0, 0, 0, 0, 0]"] ;
281 -> 282 ;
283 [label="gini = 0.0\nsamples = 1\nvalue = [0, 0, 0, 0, 0, 1, 0, 0, 0, 0]"] ;
281 -> 283 ;
284 [label="gini = 0.0\nsamples = 2\nvalue = [0, 0, 2, 0, 0, 0, 0, 0, 0, 0]"] ;
280 -> 284 ;
285 [label="X[469] <= 24.0\ngini = 0.5\nsamples = 18\nvalue = [0, 0, 0, 0, 9, 0, 9, 0, 0, 0]"] ;
275 -> 285 ;
286 [label="X[445] <= 113.0\ngini = 0.18\nsamples = 10\nvalue = [0, 0, 0, 0, 9, 0, 1, 0, 0, 0]"] ;
285 -> 286 ;
287 [label="gini = 0.0\nsamples = 9\nvalue = [0, 0, 0, 0, 9, 0, 0, 0, 0, 0]"] ;
286 -> 287 ;
288 [label="gini = 0.0\nsamples = 1\nvalue = [0, 0, 0, 0, 0, 0, 1, 0, 0, 0]"] ;
286 -> 288 ;
289 [label="gini = 0.0\nsamples = 8\nvalue = [0, 0, 0, 0, 0, 0, 8, 0, 0, 0]"] ;
285 -> 289 ;
290 [label="X[242] <= 28.5\ngini = 0.3373\nsamples = 134\nvalue = [0, 0, 7, 0, 13, 1, 108, 1, 0, 4]"] ;
264 -> 290 ;
291 [label="X[627] <= 80.0\ngini = 0.1354\nsamples = 112\nvalue = [0, 0, 2, 0, 5, 0, 104, 0, 0, 1]"] ;
290 -> 291 ;
292 [label="X[295] <= 150.0\ngini = 0.0728\nsamples = 107\nvalue = [0, 0, 1, 0, 2, 0, 103, 0, 0, 1]"] ;
291 -> 292 ;
293 [label="X[215] <= 27.0\ngini = 0.0374\nsamples = 105\nvalue = [0, 0, 0, 0, 2, 0, 103, 0, 0, 0]"] ;
292 -> 293 ;
294 [label="X[265] <= 163.5\ngini = 0.019\nsamples = 104\nvalue = [0, 0, 0, 0, 1, 0, 103, 0, 0, 0]"] ;
293 -> 294 ;
295 [label="gini = 0.0\nsamples = 103\nvalue = [0, 0, 0, 0, 0, 0, 103, 0, 0, 0]"] ;
294 -> 295 ;
296 [label="gini = 0.0\nsamples = 1\nvalue = [0, 0, 0, 0, 1, 0, 0, 0, 0, 0]"] ;
294 -> 296 ;
297 [label="gini = 0.0\nsamples = 1\nvalue = [0, 0, 0, 0, 1, 0, 0, 0, 0, 0]"] ;
293 -> 297 ;
298 [label="X[292] <= 93.0\ngini = 0.5\nsamples = 2\nvalue = [0, 0, 1, 0, 0, 0, 0, 0, 0, 1]"] ;
292 -> 298 ;
299 [label="gini = 0.0\nsamples = 1\nvalue = [0, 0, 0, 0, 0, 0, 0, 0, 0, 1]"] ;
298 -> 299 ;
300 [label="gini = 0.0\nsamples = 1\nvalue = [0, 0, 1, 0, 0, 0, 0, 0, 0, 0]"] ;
298 -> 300 ;
301 [label="X[319] <= 6.0\ngini = 0.56\nsamples = 5\nvalue = [0, 0, 1, 0, 3, 0, 1, 0, 0, 0]"] ;
291 -> 301 ;
302 [label="X[126] <= 197.5\ngini = 0.5\nsamples = 2\nvalue = [0, 0, 1, 0, 0, 0, 1, 0, 0, 0]"] ;
301 -> 302 ;
303 [label="gini = 0.0\nsamples = 1\nvalue = [0, 0, 1, 0, 0, 0, 0, 0, 0, 0]"] ;
302 -> 303 ;
304 [label="gini = 0.0\nsamples = 1\nvalue = [0, 0, 0, 0, 0, 0, 1, 0, 0, 0]"] ;
302 -> 304 ;
305 [label="gini = 0.0\nsamples = 3\nvalue = [0, 0, 0, 0, 3, 0, 0, 0, 0, 0]"] ;
301 -> 305 ;
306 [label="X[400] <= 137.5\ngini = 0.7603\nsamples = 22\nvalue = [0, 0, 5, 0, 8, 1, 4, 1, 0, 3]"] ;
290 -> 306 ;
307 [label="X[234] <= 5.5\ngini = 0.6942\nsamples = 11\nvalue = [0, 0, 5, 0, 0, 1, 1, 1, 0, 3]"] ;
306 -> 307 ;
308 [label="X[600] <= 200.5\ngini = 0.5625\nsamples = 8\nvalue = [0, 0, 5, 0, 0, 1, 1, 1, 0, 0]"] ;
307 -> 308 ;
309 [label="gini = 0.0\nsamples = 5\nvalue = [0, 0, 5, 0, 0, 0, 0, 0, 0, 0]"] ;
308 -> 309 ;
310 [label="X[512] <= 128.0\ngini = 0.6667\nsamples = 3\nvalue = [0, 0, 0, 0, 0, 1, 1, 1, 0, 0]"] ;
308 -> 310 ;
311 [label="gini = 0.0\nsamples = 1\nvalue = [0, 0, 0, 0, 0, 0, 0, 1, 0, 0]"] ;
310 -> 311 ;
312 [label="X[380] <= 200.5\ngini = 0.5\nsamples = 2\nvalue = [0, 0, 0, 0, 0, 1, 1, 0, 0, 0]"] ;
310 -> 312 ;
313 [label="gini = 0.0\nsamples = 1\nvalue = [0, 0, 0, 0, 0, 1, 0, 0, 0, 0]"] ;
312 -> 313 ;
314 [label="gini = 0.0\nsamples = 1\nvalue = [0, 0, 0, 0, 0, 0, 1, 0, 0, 0]"] ;
312 -> 314 ;
315 [label="gini = 0.0\nsamples = 3\nvalue = [0, 0, 0, 0, 0, 0, 0, 0, 0, 3]"] ;
307 -> 315 ;
316 [label="X[379] <= 246.5\ngini = 0.3967\nsamples = 11\nvalue = [0, 0, 0, 0, 8, 0, 3, 0, 0, 0]"] ;
306 -> 316 ;
317 [label="gini = 0.0\nsamples = 8\nvalue = [0, 0, 0, 0, 8, 0, 0, 0, 0, 0]"] ;
316 -> 317 ;
318 [label="gini = 0.0\nsamples = 3\nvalue = [0, 0, 0, 0, 0, 0, 3, 0, 0, 0]"] ;
316 -> 318 ;
319 [label="X[427] <= 1.5\ngini = 0.475\nsamples = 354\nvalue = [5, 0, 34, 0, 252, 6, 19, 15, 1, 22]"] ;
249 -> 319 ;
320 [label="X[127] <= 6.5\ngini = 0.6665\nsamples = 62\nvalue = [0, 0, 30, 0, 13, 0, 1, 14, 0, 4]"] ;
319 -> 320 ;
321 [label="X[266] <= 22.0\ngini = 0.7022\nsamples = 38\nvalue = [0, 0, 7, 0, 13, 0, 0, 14, 0, 4]"] ;
320 -> 321 ;
322 [label="X[182] <= 80.5\ngini = 0.4444\nsamples = 18\nvalue = [0, 0, 1, 0, 13, 0, 0, 1, 0, 3]"] ;
321 -> 322 ;
323 [label="X[471] <= 65.5\ngini = 0.1327\nsamples = 14\nvalue = [0, 0, 0, 0, 13, 0, 0, 0, 0, 1]"] ;
322 -> 323 ;
324 [label="gini = 0.0\nsamples = 13\nvalue = [0, 0, 0, 0, 13, 0, 0, 0, 0, 0]"] ;
323 -> 324 ;
325 [label="gini = 0.0\nsamples = 1\nvalue = [0, 0, 0, 0, 0, 0, 0, 0, 0, 1]"] ;
323 -> 325 ;
326 [label="X[301] <= 113.5\ngini = 0.625\nsamples = 4\nvalue = [0, 0, 1, 0, 0, 0, 0, 1, 0, 2]"] ;
322 -> 326 ;
327 [label="gini = 0.0\nsamples = 2\nvalue = [0, 0, 0, 0, 0, 0, 0, 0, 0, 2]"] ;
326 -> 327 ;
328 [label="X[621] <= 6.0\ngini = 0.5\nsamples = 2\nvalue = [0, 0, 1, 0, 0, 0, 0, 1, 0, 0]"] ;
326 -> 328 ;
329 [label="gini = 0.0\nsamples = 1\nvalue = [0, 0, 0, 0, 0, 0, 0, 1, 0, 0]"] ;
328 -> 329 ;
330 [label="gini = 0.0\nsamples = 1\nvalue = [0, 0, 1, 0, 0, 0, 0, 0, 0, 0]"] ;
328 -> 330 ;
331 [label="X[490] <= 218.5\ngini = 0.485\nsamples = 20\nvalue = [0, 0, 6, 0, 0, 0, 0, 13, 0, 1]"] ;
321 -> 331 ;
332 [label="X[454] <= 16.5\ngini = 0.449\nsamples = 7\nvalue = [0, 0, 5, 0, 0, 0, 0, 1, 0, 1]"] ;
331 -> 332 ;
333 [label="gini = 0.0\nsamples = 5\nvalue = [0, 0, 5, 0, 0, 0, 0, 0, 0, 0]"] ;
332 -> 333 ;
334 [label="X[466] <= 12.5\ngini = 0.5\nsamples = 2\nvalue = [0, 0, 0, 0, 0, 0, 0, 1, 0, 1]"] ;
332 -> 334 ;
335 [label="gini = 0.0\nsamples = 1\nvalue = [0, 0, 0, 0, 0, 0, 0, 1, 0, 0]"] ;
334 -> 335 ;
336 [label="gini = 0.0\nsamples = 1\nvalue = [0, 0, 0, 0, 0, 0, 0, 0, 0, 1]"] ;
334 -> 336 ;
337 [label="X[508] <= 30.0\ngini = 0.142\nsamples = 13\nvalue = [0, 0, 1, 0, 0, 0, 0, 12, 0, 0]"] ;
331 -> 337 ;
338 [label="gini = 0.0\nsamples = 12\nvalue = [0, 0, 0, 0, 0, 0, 0, 12, 0, 0]"] ;
337 -> 338 ;
339 [label="gini = 0.0\nsamples = 1\nvalue = [0, 0, 1, 0, 0, 0, 0, 0, 0, 0]"] ;
337 -> 339 ;
340 [label="X[401] <= 126.0\ngini = 0.0799\nsamples = 24\nvalue = [0, 0, 23, 0, 0, 0, 1, 0, 0, 0]"] ;
320 -> 340 ;
341 [label="gini = 0.0\nsamples = 23\nvalue = [0, 0, 23, 0, 0, 0, 0, 0, 0, 0]"] ;
340 -> 341 ;
342 [label="gini = 0.0\nsamples = 1\nvalue = [0, 0, 0, 0, 0, 0, 1, 0, 0, 0]"] ;
340 -> 342 ;
343 [label="X[294] <= 9.5\ngini = 0.3215\nsamples = 292\nvalue = [5, 0, 4, 0, 239, 6, 18, 1, 1, 18]"] ;
319 -> 343 ;
344 [label="X[96] <= 72.0\ngini = 0.2087\nsamples = 264\nvalue = [1, 0, 2, 0, 234, 0, 18, 0, 1, 8]"] ;
343 -> 344 ;
345 [label="X[127] <= 198.0\ngini = 0.1556\nsamples = 255\nvalue = [1, 0, 2, 0, 234, 0, 9, 0, 1, 8]"] ;
344 -> 345 ;
346 [label="X[182] <= 175.0\ngini = 0.1013\nsamples = 247\nvalue = [1, 0, 0, 0, 234, 0, 3, 0, 1, 8]"] ;
345 -> 346 ;
347 [label="X[359] <= 251.0\ngini = 0.0581\nsamples = 236\nvalue = [1, 0, 0, 0, 229, 0, 3, 0, 0, 3]"] ;
346 -> 347 ;
348 [label="X[266] <= 158.0\ngini = 0.034\nsamples = 232\nvalue = [1, 0, 0, 0, 228, 0, 0, 0, 0, 3]"] ;
347 -> 348 ;
349 [label="X[413] <= 254.5\ngini = 0.0173\nsamples = 230\nvalue = [1, 0, 0, 0, 228, 0, 0, 0, 0, 1]"] ;
348 -> 349 ;
350 [label="X[484] <= 12.5\ngini = 0.0087\nsamples = 229\nvalue = [0, 0, 0, 0, 228, 0, 0, 0, 0, 1]"] ;
349 -> 350 ;
351 [label="gini = 0.5\nsamples = 2\nvalue = [0, 0, 0, 0, 1, 0, 0, 0, 0, 1]"] ;
350 -> 351 ;
352 [label="gini = 0.0\nsamples = 227\nvalue = [0, 0, 0, 0, 227, 0, 0, 0, 0, 0]"] ;
350 -> 352 ;
353 [label="gini = 0.0\nsamples = 1\nvalue = [1, 0, 0, 0, 0, 0, 0, 0, 0, 0]"] ;
349 -> 353 ;
354 [label="gini = 0.0\nsamples = 2\nvalue = [0, 0, 0, 0, 0, 0, 0, 0, 0, 2]"] ;
348 -> 354 ;
355 [label="X[443] <= 122.0\ngini = 0.375\nsamples = 4\nvalue = [0, 0, 0, 0, 1, 0, 3, 0, 0, 0]"] ;
347 -> 355 ;
356 [label="gini = 0.0\nsamples = 1\nvalue = [0, 0, 0, 0, 1, 0, 0, 0, 0, 0]"] ;
355 -> 356 ;
357 [label="gini = 0.0\nsamples = 3\nvalue = [0, 0, 0, 0, 0, 0, 3, 0, 0, 0]"] ;
355 -> 357 ;
358 [label="X[291] <= 84.5\ngini = 0.5785\nsamples = 11\nvalue = [0, 0, 0, 0, 5, 0, 0, 0, 1, 5]"] ;
346 -> 358 ;
359 [label="gini = 0.0\nsamples = 5\nvalue = [0, 0, 0, 0, 0, 0, 0, 0, 0, 5]"] ;
358 -> 359 ;
360 [label="X[273] <= 8.5\ngini = 0.2778\nsamples = 6\nvalue = [0, 0, 0, 0, 5, 0, 0, 0, 1, 0]"] ;
358 -> 360 ;
361 [label="gini = 0.0\nsamples = 5\nvalue = [0, 0, 0, 0, 5, 0, 0, 0, 0, 0]"] ;
360 -> 361 ;
362 [label="gini = 0.0\nsamples = 1\nvalue = [0, 0, 0, 0, 0, 0, 0, 0, 1, 0]"] ;
360 -> 362 ;
363 [label="X[508] <= 64.0\ngini = 0.375\nsamples = 8\nvalue = [0, 0, 2, 0, 0, 0, 6, 0, 0, 0]"] ;
345 -> 363 ;
364 [label="gini = 0.0\nsamples = 6\nvalue = [0, 0, 0, 0, 0, 0, 6, 0, 0, 0]"] ;
363 -> 364 ;
365 [label="gini = 0.0\nsamples = 2\nvalue = [0, 0, 2, 0, 0, 0, 0, 0, 0, 0]"] ;
363 -> 365 ;
366 [label="gini = 0.0\nsamples = 9\nvalue = [0, 0, 0, 0, 0, 0, 9, 0, 0, 0]"] ;
344 -> 366 ;
367 [label="X[383] <= 100.0\ngini = 0.7679\nsamples = 28\nvalue = [4, 0, 2, 0, 5, 6, 0, 1, 0, 10]"] ;
343 -> 367 ;
368 [label="X[247] <= 10.5\ngini = 0.785\nsamples = 20\nvalue = [4, 0, 2, 0, 5, 6, 0, 1, 0, 2]"] ;
367 -> 368 ;
369 [label="X[442] <= 49.0\ngini = 0.7449\nsamples = 14\nvalue = [4, 0, 2, 0, 5, 0, 0, 1, 0, 2]"] ;
368 -> 369 ;
370 [label="X[468] <= 17.5\ngini = 0.66\nsamples = 10\nvalue = [0, 0, 2, 0, 5, 0, 0, 1, 0, 2]"] ;
369 -> 370 ;
371 [label="X[460] <= 34.0\ngini = 0.64\nsamples = 5\nvalue = [0, 0, 2, 0, 0, 0, 0, 1, 0, 2]"] ;
370 -> 371 ;
372 [label="X[292] <= 229.0\ngini = 0.4444\nsamples = 3\nvalue = [0, 0, 0, 0, 0, 0, 0, 1, 0, 2]"] ;
371 -> 372 ;
373 [label="gini = 0.0\nsamples = 2\nvalue = [0, 0, 0, 0, 0, 0, 0, 0, 0, 2]"] ;
372 -> 373 ;
374 [label="gini = 0.0\nsamples = 1\nvalue = [0, 0, 0, 0, 0, 0, 0, 1, 0, 0]"] ;
372 -> 374 ;
375 [label="gini = 0.0\nsamples = 2\nvalue = [0, 0, 2, 0, 0, 0, 0, 0, 0, 0]"] ;
371 -> 375 ;
376 [label="gini = 0.0\nsamples = 5\nvalue = [0, 0, 0, 0, 5, 0, 0, 0, 0, 0]"] ;
370 -> 376 ;
377 [label="gini = 0.0\nsamples = 4\nvalue = [4, 0, 0, 0, 0, 0, 0, 0, 0, 0]"] ;
369 -> 377 ;
378 [label="gini = 0.0\nsamples = 6\nvalue = [0, 0, 0, 0, 0, 6, 0, 0, 0, 0]"] ;
368 -> 378 ;
379 [label="gini = 0.0\nsamples = 8\nvalue = [0, 0, 0, 0, 0, 0, 0, 0, 0, 8]"] ;
367 -> 379 ;
380 [label="X[437] <= 1.0\ngini = 0.6192\nsamples = 660\nvalue = [84, 0, 37, 6, 42, 13, 8, 80, 4, 386]"] ;
248 -> 380 ;
381 [label="X[489] <= 9.0\ngini = 0.5793\nsamples = 132\nvalue = [82, 0, 5, 4, 1, 11, 1, 9, 0, 19]"] ;
380 -> 381 ;
382 [label="X[428] <= 2.0\ngini = 0.3019\nsamples = 94\nvalue = [78, 0, 1, 3, 0, 0, 0, 5, 0, 7]"] ;
381 -> 382 ;
383 [label="X[522] <= 51.5\ngini = 0.5679\nsamples = 9\nvalue = [1, 0, 0, 3, 0, 0, 0, 0, 0, 5]"] ;
382 -> 383 ;
384 [label="X[515] <= 163.0\ngini = 0.375\nsamples = 4\nvalue = [1, 0, 0, 3, 0, 0, 0, 0, 0, 0]"] ;
383 -> 384 ;
385 [label="gini = 0.0\nsamples = 3\nvalue = [0, 0, 0, 3, 0, 0, 0, 0, 0, 0]"] ;
384 -> 385 ;
386 [label="gini = 0.0\nsamples = 1\nvalue = [1, 0, 0, 0, 0, 0, 0, 0, 0, 0]"] ;
384 -> 386 ;
387 [label="gini = 0.0\nsamples = 5\nvalue = [0, 0, 0, 0, 0, 0, 0, 0, 0, 5]"] ;
383 -> 387 ;
388 [label="X[715] <= 41.0\ngini = 0.1752\nsamples = 85\nvalue = [77, 0, 1, 0, 0, 0, 0, 5, 0, 2]"] ;
382 -> 388 ;
389 [label="X[717] <= 3.5\ngini = 0.0731\nsamples = 80\nvalue = [77, 0, 1, 0, 0, 0, 0, 1, 0, 1]"] ;
388 -> 389 ;
390 [label="X[557] <= 33.5\ngini = 0.0253\nsamples = 78\nvalue = [77, 0, 1, 0, 0, 0, 0, 0, 0, 0]"] ;
389 -> 390 ;
391 [label="gini = 0.0\nsamples = 77\nvalue = [77, 0, 0, 0, 0, 0, 0, 0, 0, 0]"] ;
390 -> 391 ;
392 [label="gini = 0.0\nsamples = 1\nvalue = [0, 0, 1, 0, 0, 0, 0, 0, 0, 0]"] ;
390 -> 392 ;
393 [label="X[370] <= 126.5\ngini = 0.5\nsamples = 2\nvalue = [0, 0, 0, 0, 0, 0, 0, 1, 0, 1]"] ;
389 -> 393 ;
394 [label="gini = 0.0\nsamples = 1\nvalue = [0, 0, 0, 0, 0, 0, 0, 1, 0, 0]"] ;
393 -> 394 ;
395 [label="gini = 0.0\nsamples = 1\nvalue = [0, 0, 0, 0, 0, 0, 0, 0, 0, 1]"] ;
393 -> 395 ;
396 [label="X[266] <= 96.0\ngini = 0.32\nsamples = 5\nvalue = [0, 0, 0, 0, 0, 0, 0, 4, 0, 1]"] ;
388 -> 396 ;
397 [label="gini = 0.0\nsamples = 1\nvalue = [0, 0, 0, 0, 0, 0, 0, 0, 0, 1]"] ;
396 -> 397 ;
398 [label="gini = 0.0\nsamples = 4\nvalue = [0, 0, 0, 0, 0, 0, 0, 4, 0, 0]"] ;
396 -> 398 ;
399 [label="X[318] <= 21.5\ngini = 0.7812\nsamples = 38\nvalue = [4, 0, 4, 1, 1, 11, 1, 4, 0, 12]"] ;
381 -> 399 ;
400 [label="X[574] <= 1.5\ngini = 0.7072\nsamples = 25\nvalue = [2, 0, 4, 1, 0, 1, 1, 4, 0, 12]"] ;
399 -> 400 ;
401 [label="X[208] <= 90.5\ngini = 0.3467\nsamples = 15\nvalue = [0, 0, 1, 1, 0, 1, 0, 0, 0, 12]"] ;
400 -> 401 ;
402 [label="X[522] <= 2.5\ngini = 0.6667\nsamples = 3\nvalue = [0, 0, 1, 1, 0, 1, 0, 0, 0, 0]"] ;
401 -> 402 ;
403 [label="gini = 0.0\nsamples = 1\nvalue = [0, 0, 0, 1, 0, 0, 0, 0, 0, 0]"] ;
402 -> 403 ;
404 [label="X[653] <= 9.0\ngini = 0.5\nsamples = 2\nvalue = [0, 0, 1, 0, 0, 1, 0, 0, 0, 0]"] ;
402 -> 404 ;
405 [label="gini = 0.0\nsamples = 1\nvalue = [0, 0, 1, 0, 0, 0, 0, 0, 0, 0]"] ;
404 -> 405 ;
406 [label="gini = 0.0\nsamples = 1\nvalue = [0, 0, 0, 0, 0, 1, 0, 0, 0, 0]"] ;
404 -> 406 ;
407 [label="gini = 0.0\nsamples = 12\nvalue = [0, 0, 0, 0, 0, 0, 0, 0, 0, 12]"] ;
401 -> 407 ;
408 [label="X[489] <= 224.0\ngini = 0.7\nsamples = 10\nvalue = [2, 0, 3, 0, 0, 0, 1, 4, 0, 0]"] ;
400 -> 408 ;
409 [label="X[371] <= 77.0\ngini = 0.6111\nsamples = 6\nvalue = [2, 0, 3, 0, 0, 0, 1, 0, 0, 0]"] ;
408 -> 409 ;
410 [label="gini = 0.0\nsamples = 3\nvalue = [0, 0, 3, 0, 0, 0, 0, 0, 0, 0]"] ;
409 -> 410 ;
411 [label="X[341] <= 3.0\ngini = 0.4444\nsamples = 3\nvalue = [2, 0, 0, 0, 0, 0, 1, 0, 0, 0]"] ;
409 -> 411 ;
412 [label="gini = 0.0\nsamples = 1\nvalue = [0, 0, 0, 0, 0, 0, 1, 0, 0, 0]"] ;
411 -> 412 ;
413 [label="gini = 0.0\nsamples = 2\nvalue = [2, 0, 0, 0, 0, 0, 0, 0, 0, 0]"] ;
411 -> 413 ;
414 [label="gini = 0.0\nsamples = 4\nvalue = [0, 0, 0, 0, 0, 0, 0, 4, 0, 0]"] ;
408 -> 414 ;
415 [label="X[441] <= 7.0\ngini = 0.3787\nsamples = 13\nvalue = [2, 0, 0, 0, 1, 10, 0, 0, 0, 0]"] ;
399 -> 415 ;
416 [label="gini = 0.0\nsamples = 10\nvalue = [0, 0, 0, 0, 0, 10, 0, 0, 0, 0]"] ;
415 -> 416 ;
417 [label="X[498] <= 35.5\ngini = 0.4444\nsamples = 3\nvalue = [2, 0, 0, 0, 1, 0, 0, 0, 0, 0]"] ;
415 -> 417 ;
418 [label="gini = 0.0\nsamples = 1\nvalue = [0, 0, 0, 0, 1, 0, 0, 0, 0, 0]"] ;
417 -> 418 ;
419 [label="gini = 0.0\nsamples = 2\nvalue = [2, 0, 0, 0, 0, 0, 0, 0, 0, 0]"] ;
417 -> 419 ;
420 [label="X[427] <= 0.5\ngini = 0.4888\nsamples = 528\nvalue = [2, 0, 32, 2, 41, 2, 7, 71, 4, 367]"] ;
380 -> 420 ;
421 [label="X[538] <= 92.5\ngini = 0.6804\nsamples = 121\nvalue = [0, 0, 31, 2, 3, 1, 2, 54, 0, 28]"] ;
420 -> 421 ;
422 [label="X[232] <= 12.0\ngini = 0.58\nsamples = 93\nvalue = [0, 0, 5, 1, 3, 1, 2, 53, 0, 28]"] ;
421 -> 422 ;
423 [label="X[546] <= 210.5\ngini = 0.6025\nsamples = 40\nvalue = [0, 0, 3, 1, 3, 1, 2, 6, 0, 24]"] ;
422 -> 423 ;
424 [label="X[460] <= 229.5\ngini = 0.3163\nsamples = 28\nvalue = [0, 0, 0, 1, 2, 1, 0, 1, 0, 23]"] ;
423 -> 424 ;
425 [label="X[263] <= 6.5\ngini = 0.0799\nsamples = 24\nvalue = [0, 0, 0, 0, 1, 0, 0, 0, 0, 23]"] ;
424 -> 425 ;
426 [label="gini = 0.0\nsamples = 1\nvalue = [0, 0, 0, 0, 1, 0, 0, 0, 0, 0]"] ;
425 -> 426 ;
427 [label="gini = 0.0\nsamples = 23\nvalue = [0, 0, 0, 0, 0, 0, 0, 0, 0, 23]"] ;
425 -> 427 ;
428 [label="X[493] <= 24.5\ngini = 0.75\nsamples = 4\nvalue = [0, 0, 0, 1, 1, 1, 0, 1, 0, 0]"] ;
424 -> 428 ;
429 [label="gini = 0.0\nsamples = 1\nvalue = [0, 0, 0, 0, 0, 0, 0, 1, 0, 0]"] ;
428 -> 429 ;
430 [label="X[661] <= 126.5\ngini = 0.6667\nsamples = 3\nvalue = [0, 0, 0, 1, 1, 1, 0, 0, 0, 0]"] ;
428 -> 430 ;
431 [label="X[634] <= 50.0\ngini = 0.5\nsamples = 2\nvalue = [0, 0, 0, 1, 1, 0, 0, 0, 0, 0]"] ;
430 -> 431 ;
432 [label="gini = 0.0\nsamples = 1\nvalue = [0, 0, 0, 1, 0, 0, 0, 0, 0, 0]"] ;
431 -> 432 ;
433 [label="gini = 0.0\nsamples = 1\nvalue = [0, 0, 0, 0, 1, 0, 0, 0, 0, 0]"] ;
431 -> 433 ;
434 [label="gini = 0.0\nsamples = 1\nvalue = [0, 0, 0, 0, 0, 1, 0, 0, 0, 0]"] ;
430 -> 434 ;
435 [label="X[656] <= 19.5\ngini = 0.7222\nsamples = 12\nvalue = [0, 0, 3, 0, 1, 0, 2, 5, 0, 1]"] ;
423 -> 435 ;
436 [label="X[345] <= 4.0\ngini = 0.6939\nsamples = 7\nvalue = [0, 0, 3, 0, 1, 0, 2, 0, 0, 1]"] ;
435 -> 436 ;
437 [label="gini = 0.0\nsamples = 3\nvalue = [0, 0, 3, 0, 0, 0, 0, 0, 0, 0]"] ;
436 -> 437 ;
438 [label="X[212] <= 126.0\ngini = 0.625\nsamples = 4\nvalue = [0, 0, 0, 0, 1, 0, 2, 0, 0, 1]"] ;
436 -> 438 ;
439 [label="gini = 0.0\nsamples = 2\nvalue = [0, 0, 0, 0, 0, 0, 2, 0, 0, 0]"] ;
438 -> 439 ;
440 [label="X[428] <= 98.5\ngini = 0.5\nsamples = 2\nvalue = [0, 0, 0, 0, 1, 0, 0, 0, 0, 1]"] ;
438 -> 440 ;
441 [label="gini = 0.0\nsamples = 1\nvalue = [0, 0, 0, 0, 1, 0, 0, 0, 0, 0]"] ;
440 -> 441 ;
442 [label="gini = 0.0\nsamples = 1\nvalue = [0, 0, 0, 0, 0, 0, 0, 0, 0, 1]"] ;
440 -> 442 ;
443 [label="gini = 0.0\nsamples = 5\nvalue = [0, 0, 0, 0, 0, 0, 0, 5, 0, 0]"] ;
435 -> 443 ;
444 [label="X[481] <= 31.0\ngini = 0.2065\nsamples = 53\nvalue = [0, 0, 2, 0, 0, 0, 0, 47, 0, 4]"] ;
422 -> 444 ;
445 [label="X[635] <= 8.0\ngini = 0.0408\nsamples = 48\nvalue = [0, 0, 1, 0, 0, 0, 0, 47, 0, 0]"] ;
444 -> 445 ;
446 [label="gini = 0.0\nsamples = 47\nvalue = [0, 0, 0, 0, 0, 0, 0, 47, 0, 0]"] ;
445 -> 446 ;
447 [label="gini = 0.0\nsamples = 1\nvalue = [0, 0, 1, 0, 0, 0, 0, 0, 0, 0]"] ;
445 -> 447 ;
448 [label="X[380] <= 109.0\ngini = 0.32\nsamples = 5\nvalue = [0, 0, 1, 0, 0, 0, 0, 0, 0, 4]"] ;
444 -> 448 ;
449 [label="gini = 0.0\nsamples = 4\nvalue = [0, 0, 0, 0, 0, 0, 0, 0, 0, 4]"] ;
448 -> 449 ;
450 [label="gini = 0.0\nsamples = 1\nvalue = [0, 0, 1, 0, 0, 0, 0, 0, 0, 0]"] ;
448 -> 450 ;
451 [label="X[660] <= 214.0\ngini = 0.1352\nsamples = 28\nvalue = [0, 0, 26, 1, 0, 0, 0, 1, 0, 0]"] ;
421 -> 451 ;
452 [label="gini = 0.0\nsamples = 26\nvalue = [0, 0, 26, 0, 0, 0, 0, 0, 0, 0]"] ;
451 -> 452 ;
453 [label="X[186] <= 108.5\ngini = 0.5\nsamples = 2\nvalue = [0, 0, 0, 1, 0, 0, 0, 1, 0, 0]"] ;
451 -> 453 ;
454 [label="gini = 0.0\nsamples = 1\nvalue = [0, 0, 0, 0, 0, 0, 0, 1, 0, 0]"] ;
453 -> 454 ;
455 [label="gini = 0.0\nsamples = 1\nvalue = [0, 0, 0, 1, 0, 0, 0, 0, 0, 0]"] ;
453 -> 455 ;
456 [label="X[235] <= 33.0\ngini = 0.2955\nsamples = 407\nvalue = [2, 0, 1, 0, 38, 1, 5, 17, 4, 339]"] ;
420 -> 456 ;
457 [label="X[468] <= 1.0\ngini = 0.5072\nsamples = 83\nvalue = [0, 0, 0, 0, 33, 1, 1, 0, 0, 48]"] ;
456 -> 457 ;
458 [label="X[375] <= 70.5\ngini = 0.3438\nsamples = 56\nvalue = [0, 0, 0, 0, 11, 1, 0, 0, 0, 44]"] ;
457 -> 458 ;
459 [label="X[156] <= 34.0\ngini = 0.2368\nsamples = 51\nvalue = [0, 0, 0, 0, 7, 0, 0, 0, 0, 44]"] ;
458 -> 459 ;
460 [label="X[212] <= 14.0\ngini = 0.0868\nsamples = 44\nvalue = [0, 0, 0, 0, 2, 0, 0, 0, 0, 42]"] ;
459 -> 460 ;
461 [label="gini = 0.0\nsamples = 2\nvalue = [0, 0, 0, 0, 2, 0, 0, 0, 0, 0]"] ;
460 -> 461 ;
462 [label="gini = 0.0\nsamples = 42\nvalue = [0, 0, 0, 0, 0, 0, 0, 0, 0, 42]"] ;
460 -> 462 ;
463 [label="X[658] <= 58.5\ngini = 0.4082\nsamples = 7\nvalue = [0, 0, 0, 0, 5, 0, 0, 0, 0, 2]"] ;
459 -> 463 ;
464 [label="gini = 0.0\nsamples = 5\nvalue = [0, 0, 0, 0, 5, 0, 0, 0, 0, 0]"] ;
463 -> 464 ;
465 [label="gini = 0.0\nsamples = 2\nvalue = [0, 0, 0, 0, 0, 0, 0, 0, 0, 2]"] ;
463 -> 465 ;
466 [label="X[679] <= 127.5\ngini = 0.32\nsamples = 5\nvalue = [0, 0, 0, 0, 4, 1, 0, 0, 0, 0]"] ;
458 -> 466 ;
467 [label="gini = 0.0\nsamples = 4\nvalue = [0, 0, 0, 0, 4, 0, 0, 0, 0, 0]"] ;
466 -> 467 ;
468 [label="gini = 0.0\nsamples = 1\nvalue = [0, 0, 0, 0, 0, 1, 0, 0, 0, 0]"] ;
466 -> 468 ;
469 [label="X[411] <= 182.5\ngini = 0.3128\nsamples = 27\nvalue = [0, 0, 0, 0, 22, 0, 1, 0, 0, 4]"] ;
457 -> 469 ;
470 [label="gini = 0.0\nsamples = 22\nvalue = [0, 0, 0, 0, 22, 0, 0, 0, 0, 0]"] ;
469 -> 470 ;
471 [label="X[210] <= 217.0\ngini = 0.32\nsamples = 5\nvalue = [0, 0, 0, 0, 0, 0, 1, 0, 0, 4]"] ;
469 -> 471 ;
472 [label="gini = 0.0\nsamples = 4\nvalue = [0, 0, 0, 0, 0, 0, 0, 0, 0, 4]"] ;
471 -> 472 ;
473 [label="gini = 0.0\nsamples = 1\nvalue = [0, 0, 0, 0, 0, 0, 1, 0, 0, 0]"] ;
471 -> 473 ;
474 [label="X[485] <= 6.5\ngini = 0.19\nsamples = 324\nvalue = [2, 0, 1, 0, 5, 0, 4, 17, 4, 291]"] ;
456 -> 474 ;
475 [label="X[540] <= 8.5\ngini = 0.4766\nsamples = 16\nvalue = [2, 0, 0, 0, 0, 0, 0, 11, 0, 3]"] ;
474 -> 475 ;
476 [label="X[291] <= 253.5\ngini = 0.1528\nsamples = 12\nvalue = [1, 0, 0, 0, 0, 0, 0, 11, 0, 0]"] ;
475 -> 476 ;
477 [label="gini = 0.0\nsamples = 11\nvalue = [0, 0, 0, 0, 0, 0, 0, 11, 0, 0]"] ;
476 -> 477 ;
478 [label="gini = 0.0\nsamples = 1\nvalue = [1, 0, 0, 0, 0, 0, 0, 0, 0, 0]"] ;
476 -> 478 ;
479 [label="X[411] <= 222.0\ngini = 0.375\nsamples = 4\nvalue = [1, 0, 0, 0, 0, 0, 0, 0, 0, 3]"] ;
475 -> 479 ;
480 [label="gini = 0.0\nsamples = 3\nvalue = [0, 0, 0, 0, 0, 0, 0, 0, 0, 3]"] ;
479 -> 480 ;
481 [label="gini = 0.0\nsamples = 1\nvalue = [1, 0, 0, 0, 0, 0, 0, 0, 0, 0]"] ;
479 -> 481 ;
482 [label="X[498] <= 218.0\ngini = 0.1247\nsamples = 308\nvalue = [0, 0, 1, 0, 5, 0, 4, 6, 4, 288]"] ;
474 -> 482 ;
483 [label="X[248] <= 19.0\ngini = 0.0899\nsamples = 302\nvalue = [0, 0, 1, 0, 5, 0, 0, 5, 3, 288]"] ;
482 -> 483 ;
484 [label="X[442] <= 253.5\ngini = 0.0656\nsamples = 298\nvalue = [0, 0, 1, 0, 3, 0, 0, 5, 1, 288]"] ;
483 -> 484 ;
485 [label="X[563] <= 127.0\ngini = 0.053\nsamples = 296\nvalue = [0, 0, 1, 0, 1, 0, 0, 5, 1, 288]"] ;
484 -> 485 ;
486 [label="X[330] <= 254.0\ngini = 0.0466\nsamples = 295\nvalue = [0, 0, 0, 0, 1, 0, 0, 5, 1, 288]"] ;
485 -> 486 ;
487 [label="X[228] <= 29.5\ngini = 0.0401\nsamples = 294\nvalue = [0, 0, 0, 0, 0, 0, 0, 5, 1, 288]"] ;
486 -> 487 ;
488 [label="gini = 0.0336\nsamples = 293\nvalue = [0, 0, 0, 0, 0, 0, 0, 4, 1, 288]"] ;
487 -> 488 ;
489 [label="gini = 0.0\nsamples = 1\nvalue = [0, 0, 0, 0, 0, 0, 0, 1, 0, 0]"] ;
487 -> 489 ;
490 [label="gini = 0.0\nsamples = 1\nvalue = [0, 0, 0, 0, 1, 0, 0, 0, 0, 0]"] ;
486 -> 490 ;
491 [label="gini = 0.0\nsamples = 1\nvalue = [0, 0, 1, 0, 0, 0, 0, 0, 0, 0]"] ;
485 -> 491 ;
492 [label="gini = 0.0\nsamples = 2\nvalue = [0, 0, 0, 0, 2, 0, 0, 0, 0, 0]"] ;
484 -> 492 ;
493 [label="X[315] <= 105.0\ngini = 0.5\nsamples = 4\nvalue = [0, 0, 0, 0, 2, 0, 0, 0, 2, 0]"] ;
483 -> 493 ;
494 [label="gini = 0.0\nsamples = 2\nvalue = [0, 0, 0, 0, 2, 0, 0, 0, 0, 0]"] ;
493 -> 494 ;
495 [label="gini = 0.0\nsamples = 2\nvalue = [0, 0, 0, 0, 0, 0, 0, 0, 2, 0]"] ;
493 -> 495 ;
496 [label="X[460] <= 31.5\ngini = 0.5\nsamples = 6\nvalue = [0, 0, 0, 0, 0, 0, 4, 1, 1, 0]"] ;
482 -> 496 ;
497 [label="gini = 0.0\nsamples = 4\nvalue = [0, 0, 0, 0, 0, 0, 4, 0, 0, 0]"] ;
496 -> 497 ;
498 [label="X[441] <= 39.5\ngini = 0.5\nsamples = 2\nvalue = [0, 0, 0, 0, 0, 0, 0, 1, 1, 0]"] ;
496 -> 498 ;
499 [label="gini = 0.0\nsamples = 1\nvalue = [0, 0, 0, 0, 0, 0, 0, 1, 0, 0]"] ;
498 -> 499 ;
500 [label="gini = 0.0\nsamples = 1\nvalue = [0, 0, 0, 0, 0, 0, 0, 0, 1, 0]"] ;
498 -> 500 ;
501 [label="X[516] <= 14.5\ngini = 0.8482\nsamples = 2950\nvalue = [11, 333, 164, 331, 167, 411, 149, 171, 818, 395]"] ;
3 -> 501 ;
502 [label="X[353] <= 2.5\ngini = 0.7879\nsamples = 1269\nvalue = [6, 36, 12, 302, 121, 379, 9, 38, 78, 288]"] ;
501 -> 502 ;
503 [label="X[322] <= 6.5\ngini = 0.603\nsamples = 621\nvalue = [6, 36, 3, 141, 24, 361, 5, 2, 18, 25]"] ;
502 -> 503 ;
504 [label="X[355] <= 12.5\ngini = 0.4056\nsamples = 425\nvalue = [4, 14, 2, 23, 21, 325, 3, 1, 12, 20]"] ;
503 -> 504 ;
505 [label="X[351] <= 99.0\ngini = 0.307\nsamples = 392\nvalue = [3, 14, 2, 21, 7, 325, 3, 0, 7, 10]"] ;
504 -> 505 ;
506 [label="X[657] <= 2.5\ngini = 0.2452\nsamples = 374\nvalue = [3, 14, 1, 18, 2, 324, 3, 0, 2, 7]"] ;
505 -> 506 ;
507 [label="X[375] <= 125.5\ngini = 0.6562\nsamples = 64\nvalue = [1, 14, 1, 6, 2, 34, 3, 0, 1, 2]"] ;
506 -> 507 ;
508 [label="X[408] <= 63.5\ngini = 0.576\nsamples = 21\nvalue = [0, 13, 0, 0, 2, 2, 3, 0, 0, 1]"] ;
507 -> 508 ;
509 [label="gini = 0.0\nsamples = 13\nvalue = [0, 13, 0, 0, 0, 0, 0, 0, 0, 0]"] ;
508 -> 509 ;
510 [label="X[570] <= 137.5\ngini = 0.7188\nsamples = 8\nvalue = [0, 0, 0, 0, 2, 2, 3, 0, 0, 1]"] ;
508 -> 510 ;
511 [label="X[350] <= 7.0\ngini = 0.64\nsamples = 5\nvalue = [0, 0, 0, 0, 2, 2, 0, 0, 0, 1]"] ;
510 -> 511 ;
512 [label="X[490] <= 46.0\ngini = 0.4444\nsamples = 3\nvalue = [0, 0, 0, 0, 2, 0, 0, 0, 0, 1]"] ;
511 -> 512 ;
513 [label="gini = 0.0\nsamples = 1\nvalue = [0, 0, 0, 0, 0, 0, 0, 0, 0, 1]"] ;
512 -> 513 ;
514 [label="gini = 0.0\nsamples = 2\nvalue = [0, 0, 0, 0, 2, 0, 0, 0, 0, 0]"] ;
512 -> 514 ;
515 [label="gini = 0.0\nsamples = 2\nvalue = [0, 0, 0, 0, 0, 2, 0, 0, 0, 0]"] ;
511 -> 515 ;
516 [label="gini = 0.0\nsamples = 3\nvalue = [0, 0, 0, 0, 0, 0, 3, 0, 0, 0]"] ;
510 -> 516 ;
517 [label="X[174] <= 24.5\ngini = 0.424\nsamples = 43\nvalue = [1, 1, 1, 6, 0, 32, 0, 0, 1, 1]"] ;
507 -> 517 ;
518 [label="X[385] <= 186.5\ngini = 0.3208\nsamples = 39\nvalue = [1, 1, 1, 2, 0, 32, 0, 0, 1, 1]"] ;
517 -> 518 ;
519 [label="X[517] <= 48.0\ngini = 0.2052\nsamples = 36\nvalue = [0, 1, 0, 2, 0, 32, 0, 0, 0, 1]"] ;
518 -> 519 ;
520 [label="X[293] <= 237.5\ngini = 0.1107\nsamples = 34\nvalue = [0, 0, 0, 2, 0, 32, 0, 0, 0, 0]"] ;
519 -> 520 ;
521 [label="gini = 0.0\nsamples = 31\nvalue = [0, 0, 0, 0, 0, 31, 0, 0, 0, 0]"] ;
520 -> 521 ;
522 [label="X[208] <= 66.0\ngini = 0.4444\nsamples = 3\nvalue = [0, 0, 0, 2, 0, 1, 0, 0, 0, 0]"] ;
520 -> 522 ;
523 [label="gini = 0.0\nsamples = 1\nvalue = [0, 0, 0, 0, 0, 1, 0, 0, 0, 0]"] ;
522 -> 523 ;
524 [label="gini = 0.0\nsamples = 2\nvalue = [0, 0, 0, 2, 0, 0, 0, 0, 0, 0]"] ;
522 -> 524 ;
525 [label="X[350] <= 51.0\ngini = 0.5\nsamples = 2\nvalue = [0, 1, 0, 0, 0, 0, 0, 0, 0, 1]"] ;
519 -> 525 ;
526 [label="gini = 0.0\nsamples = 1\nvalue = [0, 0, 0, 0, 0, 0, 0, 0, 0, 1]"] ;
525 -> 526 ;
527 [label="gini = 0.0\nsamples = 1\nvalue = [0, 1, 0, 0, 0, 0, 0, 0, 0, 0]"] ;
525 -> 527 ;
528 [label="X[132] <= 14.5\ngini = 0.6667\nsamples = 3\nvalue = [1, 0, 1, 0, 0, 0, 0, 0, 1, 0]"] ;
518 -> 528 ;
529 [label="gini = 0.0\nsamples = 1\nvalue = [0, 0, 0, 0, 0, 0, 0, 0, 1, 0]"] ;
528 -> 529 ;
530 [label="X[653] <= 134.0\ngini = 0.5\nsamples = 2\nvalue = [1, 0, 1, 0, 0, 0, 0, 0, 0, 0]"] ;
528 -> 530 ;
531 [label="gini = 0.0\nsamples = 1\nvalue = [0, 0, 1, 0, 0, 0, 0, 0, 0, 0]"] ;
530 -> 531 ;
532 [label="gini = 0.0\nsamples = 1\nvalue = [1, 0, 0, 0, 0, 0, 0, 0, 0, 0]"] ;
530 -> 532 ;
533 [label="gini = 0.0\nsamples = 4\nvalue = [0, 0, 0, 4, 0, 0, 0, 0, 0, 0]"] ;
517 -> 533 ;
534 [label="X[147] <= 59.0\ngini = 0.1231\nsamples = 310\nvalue = [2, 0, 0, 12, 0, 290, 0, 0, 1, 5]"] ;
506 -> 534 ;
535 [label="X[360] <= 56.0\ngini = 0.0954\nsamples = 304\nvalue = [2, 0, 0, 7, 0, 289, 0, 0, 1, 5]"] ;
534 -> 535 ;
536 [label="X[358] <= 208.0\ngini = 0.0834\nsamples = 302\nvalue = [0, 0, 0, 7, 0, 289, 0, 0, 1, 5]"] ;
535 -> 536 ;
537 [label="X[742] <= 84.0\ngini = 0.0774\nsamples = 301\nvalue = [0, 0, 0, 7, 0, 289, 0, 0, 1, 4]"] ;
536 -> 537 ;
538 [label="X[200] <= 50.0\ngini = 0.0713\nsamples = 300\nvalue = [0, 0, 0, 7, 0, 289, 0, 0, 1, 3]"] ;
537 -> 538 ;
539 [label="X[235] <= 8.0\ngini = 0.0653\nsamples = 299\nvalue = [0, 0, 0, 6, 0, 289, 0, 0, 1, 3]"] ;
538 -> 539 ;
540 [label="gini = 0.3052\nsamples = 45\nvalue = [0, 0, 0, 6, 0, 37, 0, 0, 1, 1]"] ;
539 -> 540 ;
541 [label="gini = 0.0156\nsamples = 254\nvalue = [0, 0, 0, 0, 0, 252, 0, 0, 0, 2]"] ;
539 -> 541 ;
542 [label="gini = 0.0\nsamples = 1\nvalue = [0, 0, 0, 1, 0, 0, 0, 0, 0, 0]"] ;
538 -> 542 ;
543 [label="gini = 0.0\nsamples = 1\nvalue = [0, 0, 0, 0, 0, 0, 0, 0, 0, 1]"] ;
537 -> 543 ;
544 [label="gini = 0.0\nsamples = 1\nvalue = [0, 0, 0, 0, 0, 0, 0, 0, 0, 1]"] ;
536 -> 544 ;
545 [label="gini = 0.0\nsamples = 2\nvalue = [2, 0, 0, 0, 0, 0, 0, 0, 0, 0]"] ;
535 -> 545 ;
546 [label="X[182] <= 61.0\ngini = 0.2778\nsamples = 6\nvalue = [0, 0, 0, 5, 0, 1, 0, 0, 0, 0]"] ;
534 -> 546 ;
547 [label="gini = 0.0\nsamples = 1\nvalue = [0, 0, 0, 0, 0, 1, 0, 0, 0, 0]"] ;
546 -> 547 ;
548 [label="gini = 0.0\nsamples = 5\nvalue = [0, 0, 0, 5, 0, 0, 0, 0, 0, 0]"] ;
546 -> 548 ;
549 [label="X[461] <= 20.0\ngini = 0.784\nsamples = 18\nvalue = [0, 0, 1, 3, 5, 1, 0, 0, 5, 3]"] ;
505 -> 549 ;
550 [label="X[211] <= 47.0\ngini = 0.7337\nsamples = 13\nvalue = [0, 0, 1, 3, 5, 1, 0, 0, 0, 3]"] ;
549 -> 550 ;
551 [label="X[495] <= 171.5\ngini = 0.2778\nsamples = 6\nvalue = [0, 0, 0, 0, 5, 1, 0, 0, 0, 0]"] ;
550 -> 551 ;
552 [label="gini = 0.0\nsamples = 5\nvalue = [0, 0, 0, 0, 5, 0, 0, 0, 0, 0]"] ;
551 -> 552 ;
553 [label="gini = 0.0\nsamples = 1\nvalue = [0, 0, 0, 0, 0, 1, 0, 0, 0, 0]"] ;
551 -> 553 ;
554 [label="X[491] <= 40.0\ngini = 0.6122\nsamples = 7\nvalue = [0, 0, 1, 3, 0, 0, 0, 0, 0, 3]"] ;
550 -> 554 ;
555 [label="X[181] <= 79.5\ngini = 0.375\nsamples = 4\nvalue = [0, 0, 1, 3, 0, 0, 0, 0, 0, 0]"] ;
554 -> 555 ;
556 [label="gini = 0.0\nsamples = 1\nvalue = [0, 0, 1, 0, 0, 0, 0, 0, 0, 0]"] ;
555 -> 556 ;
557 [label="gini = 0.0\nsamples = 3\nvalue = [0, 0, 0, 3, 0, 0, 0, 0, 0, 0]"] ;
555 -> 557 ;
558 [label="gini = 0.0\nsamples = 3\nvalue = [0, 0, 0, 0, 0, 0, 0, 0, 0, 3]"] ;
554 -> 558 ;
559 [label="gini = 0.0\nsamples = 5\nvalue = [0, 0, 0, 0, 0, 0, 0, 0, 5, 0]"] ;
549 -> 559 ;
560 [label="X[400] <= 27.0\ngini = 0.6997\nsamples = 33\nvalue = [1, 0, 0, 2, 14, 0, 0, 1, 5, 10]"] ;
504 -> 560 ;
561 [label="X[658] <= 248.0\ngini = 0.5988\nsamples = 18\nvalue = [0, 0, 0, 2, 0, 0, 0, 1, 5, 10]"] ;
560 -> 561 ;
562 [label="X[712] <= 247.0\ngini = 0.1653\nsamples = 11\nvalue = [0, 0, 0, 0, 0, 0, 0, 1, 0, 10]"] ;
561 -> 562 ;
563 [label="gini = 0.0\nsamples = 10\nvalue = [0, 0, 0, 0, 0, 0, 0, 0, 0, 10]"] ;
562 -> 563 ;
564 [label="gini = 0.0\nsamples = 1\nvalue = [0, 0, 0, 0, 0, 0, 0, 1, 0, 0]"] ;
562 -> 564 ;
565 [label="X[653] <= 26.5\ngini = 0.4082\nsamples = 7\nvalue = [0, 0, 0, 2, 0, 0, 0, 0, 5, 0]"] ;
561 -> 565 ;
566 [label="gini = 0.0\nsamples = 5\nvalue = [0, 0, 0, 0, 0, 0, 0, 0, 5, 0]"] ;
565 -> 566 ;
567 [label="gini = 0.0\nsamples = 2\nvalue = [0, 0, 0, 2, 0, 0, 0, 0, 0, 0]"] ;
565 -> 567 ;
568 [label="X[625] <= 162.5\ngini = 0.1244\nsamples = 15\nvalue = [1, 0, 0, 0, 14, 0, 0, 0, 0, 0]"] ;
560 -> 568 ;
569 [label="gini = 0.0\nsamples = 14\nvalue = [0, 0, 0, 0, 14, 0, 0, 0, 0, 0]"] ;
568 -> 569 ;
570 [label="gini = 0.0\nsamples = 1\nvalue = [1, 0, 0, 0, 0, 0, 0, 0, 0, 0]"] ;
568 -> 570 ;
571 [label="X[546] <= 2.0\ngini = 0.5891\nsamples = 196\nvalue = [2, 22, 1, 118, 3, 36, 2, 1, 6, 5]"] ;
503 -> 571 ;
572 [label="X[236] <= 222.0\ngini = 0.2505\nsamples = 130\nvalue = [0, 0, 0, 112, 1, 10, 0, 1, 2, 4]"] ;
571 -> 572 ;
573 [label="X[290] <= 155.5\ngini = 0.1131\nsamples = 119\nvalue = [0, 0, 0, 112, 0, 3, 0, 1, 1, 2]"] ;
572 -> 573 ;
574 [label="X[263] <= 242.0\ngini = 0.0673\nsamples = 116\nvalue = [0, 0, 0, 112, 0, 1, 0, 1, 0, 2]"] ;
573 -> 574 ;
575 [label="X[716] <= 161.5\ngini = 0.0346\nsamples = 114\nvalue = [0, 0, 0, 112, 0, 1, 0, 0, 0, 1]"] ;
574 -> 575 ;
576 [label="X[239] <= 254.5\ngini = 0.0175\nsamples = 113\nvalue = [0, 0, 0, 112, 0, 1, 0, 0, 0, 0]"] ;
575 -> 576 ;
577 [label="gini = 0.0\nsamples = 112\nvalue = [0, 0, 0, 112, 0, 0, 0, 0, 0, 0]"] ;
576 -> 577 ;
578 [label="gini = 0.0\nsamples = 1\nvalue = [0, 0, 0, 0, 0, 1, 0, 0, 0, 0]"] ;
576 -> 578 ;
579 [label="gini = 0.0\nsamples = 1\nvalue = [0, 0, 0, 0, 0, 0, 0, 0, 0, 1]"] ;
575 -> 579 ;
580 [label="X[499] <= 53.0\ngini = 0.5\nsamples = 2\nvalue = [0, 0, 0, 0, 0, 0, 0, 1, 0, 1]"] ;
574 -> 580 ;
581 [label="gini = 0.0\nsamples = 1\nvalue = [0, 0, 0, 0, 0, 0, 0, 0, 0, 1]"] ;
580 -> 581 ;
582 [label="gini = 0.0\nsamples = 1\nvalue = [0, 0, 0, 0, 0, 0, 0, 1, 0, 0]"] ;
580 -> 582 ;
583 [label="X[463] <= 243.0\ngini = 0.4444\nsamples = 3\nvalue = [0, 0, 0, 0, 0, 2, 0, 0, 1, 0]"] ;
573 -> 583 ;
584 [label="gini = 0.0\nsamples = 2\nvalue = [0, 0, 0, 0, 0, 2, 0, 0, 0, 0]"] ;
583 -> 584 ;
585 [label="gini = 0.0\nsamples = 1\nvalue = [0, 0, 0, 0, 0, 0, 0, 0, 1, 0]"] ;
583 -> 585 ;
586 [label="X[180] <= 13.5\ngini = 0.5455\nsamples = 11\nvalue = [0, 0, 0, 0, 1, 7, 0, 0, 1, 2]"] ;
572 -> 586 ;
587 [label="X[235] <= 78.0\ngini = 0.625\nsamples = 4\nvalue = [0, 0, 0, 0, 1, 0, 0, 0, 1, 2]"] ;
586 -> 587 ;
588 [label="X[631] <= 115.5\ngini = 0.5\nsamples = 2\nvalue = [0, 0, 0, 0, 1, 0, 0, 0, 1, 0]"] ;
587 -> 588 ;
589 [label="gini = 0.0\nsamples = 1\nvalue = [0, 0, 0, 0, 1, 0, 0, 0, 0, 0]"] ;
588 -> 589 ;
590 [label="gini = 0.0\nsamples = 1\nvalue = [0, 0, 0, 0, 0, 0, 0, 0, 1, 0]"] ;
588 -> 590 ;
591 [label="gini = 0.0\nsamples = 2\nvalue = [0, 0, 0, 0, 0, 0, 0, 0, 0, 2]"] ;
587 -> 591 ;
592 [label="gini = 0.0\nsamples = 7\nvalue = [0, 0, 0, 0, 0, 7, 0, 0, 0, 0]"] ;
586 -> 592 ;
593 [label="X[243] <= 1.0\ngini = 0.7185\nsamples = 66\nvalue = [2, 22, 1, 6, 2, 26, 2, 0, 4, 1]"] ;
571 -> 593 ;
594 [label="X[436] <= 16.0\ngini = 0.6522\nsamples = 39\nvalue = [1, 22, 1, 4, 2, 3, 2, 0, 3, 1]"] ;
593 -> 594 ;
595 [label="gini = 0.0\nsamples = 22\nvalue = [0, 22, 0, 0, 0, 0, 0, 0, 0, 0]"] ;
594 -> 595 ;
596 [label="X[653] <= 84.5\ngini = 0.8443\nsamples = 17\nvalue = [1, 0, 1, 4, 2, 3, 2, 0, 3, 1]"] ;
594 -> 596 ;
597 [label="X[576] <= 85.0\ngini = 0.8056\nsamples = 12\nvalue = [0, 0, 1, 0, 2, 3, 2, 0, 3, 1]"] ;
596 -> 597 ;
598 [label="X[462] <= 246.0\ngini = 0.7654\nsamples = 9\nvalue = [0, 0, 1, 0, 2, 0, 2, 0, 3, 1]"] ;
597 -> 598 ;
599 [label="X[600] <= 57.0\ngini = 0.7222\nsamples = 6\nvalue = [0, 0, 1, 0, 2, 0, 2, 0, 0, 1]"] ;
598 -> 599 ;
600 [label="gini = 0.0\nsamples = 2\nvalue = [0, 0, 0, 0, 2, 0, 0, 0, 0, 0]"] ;
599 -> 600 ;
601 [label="X[598] <= 53.0\ngini = 0.625\nsamples = 4\nvalue = [0, 0, 1, 0, 0, 0, 2, 0, 0, 1]"] ;
599 -> 601 ;
602 [label="X[295] <= 199.5\ngini = 0.5\nsamples = 2\nvalue = [0, 0, 1, 0, 0, 0, 0, 0, 0, 1]"] ;
601 -> 602 ;
603 [label="gini = 0.0\nsamples = 1\nvalue = [0, 0, 0, 0, 0, 0, 0, 0, 0, 1]"] ;
602 -> 603 ;
604 [label="gini = 0.0\nsamples = 1\nvalue = [0, 0, 1, 0, 0, 0, 0, 0, 0, 0]"] ;
602 -> 604 ;
605 [label="gini = 0.0\nsamples = 2\nvalue = [0, 0, 0, 0, 0, 0, 2, 0, 0, 0]"] ;
601 -> 605 ;
606 [label="gini = 0.0\nsamples = 3\nvalue = [0, 0, 0, 0, 0, 0, 0, 0, 3, 0]"] ;
598 -> 606 ;
607 [label="gini = 0.0\nsamples = 3\nvalue = [0, 0, 0, 0, 0, 3, 0, 0, 0, 0]"] ;
597 -> 607 ;
608 [label="X[328] <= 4.5\ngini = 0.32\nsamples = 5\nvalue = [1, 0, 0, 4, 0, 0, 0, 0, 0, 0]"] ;
596 -> 608 ;
609 [label="gini = 0.0\nsamples = 4\nvalue = [0, 0, 0, 4, 0, 0, 0, 0, 0, 0]"] ;
608 -> 609 ;
610 [label="gini = 0.0\nsamples = 1\nvalue = [1, 0, 0, 0, 0, 0, 0, 0, 0, 0]"] ;
608 -> 610 ;
611 [label="X[266] <= 48.5\ngini = 0.2661\nsamples = 27\nvalue = [1, 0, 0, 2, 0, 23, 0, 0, 1, 0]"] ;
593 -> 611 ;
612 [label="X[518] <= 102.0\ngini = 0.625\nsamples = 4\nvalue = [0, 0, 0, 2, 0, 1, 0, 0, 1, 0]"] ;
611 -> 612 ;
613 [label="gini = 0.0\nsamples = 2\nvalue = [0, 0, 0, 2, 0, 0, 0, 0, 0, 0]"] ;
612 -> 613 ;
614 [label="X[685] <= 165.5\ngini = 0.5\nsamples = 2\nvalue = [0, 0, 0, 0, 0, 1, 0, 0, 1, 0]"] ;
612 -> 614 ;
615 [label="gini = 0.0\nsamples = 1\nvalue = [0, 0, 0, 0, 0, 0, 0, 0, 1, 0]"] ;
614 -> 615 ;
616 [label="gini = 0.0\nsamples = 1\nvalue = [0, 0, 0, 0, 0, 1, 0, 0, 0, 0]"] ;
614 -> 616 ;
617 [label="X[455] <= 209.0\ngini = 0.0832\nsamples = 23\nvalue = [1, 0, 0, 0, 0, 22, 0, 0, 0, 0]"] ;
611 -> 617 ;
618 [label="gini = 0.0\nsamples = 22\nvalue = [0, 0, 0, 0, 0, 22, 0, 0, 0, 0]"] ;
617 -> 618 ;
619 [label="gini = 0.0\nsamples = 1\nvalue = [1, 0, 0, 0, 0, 0, 0, 0, 0, 0]"] ;
617 -> 619 ;
620 [label="X[346] <= 1.0\ngini = 0.7385\nsamples = 648\nvalue = [0, 0, 9, 161, 97, 18, 4, 36, 60, 263]"] ;
502 -> 620 ;
621 [label="X[652] <= 59.0\ngini = 0.616\nsamples = 242\nvalue = [0, 0, 9, 142, 10, 4, 3, 26, 12, 36]"] ;
620 -> 621 ;
622 [label="X[178] <= 16.5\ngini = 0.7775\nsamples = 154\nvalue = [0, 0, 9, 55, 10, 4, 3, 26, 12, 35]"] ;
621 -> 622 ;
623 [label="X[295] <= 22.5\ngini = 0.7686\nsamples = 90\nvalue = [0, 0, 5, 12, 8, 2, 0, 22, 8, 33]"] ;
622 -> 623 ;
624 [label="X[598] <= 28.5\ngini = 0.6929\nsamples = 59\nvalue = [0, 0, 5, 6, 6, 2, 0, 2, 8, 30]"] ;
623 -> 624 ;
625 [label="X[211] <= 143.5\ngini = 0.5444\nsamples = 46\nvalue = [0, 0, 4, 2, 6, 2, 0, 2, 0, 30]"] ;
624 -> 625 ;
626 [label="X[409] <= 75.5\ngini = 0.6281\nsamples = 11\nvalue = [0, 0, 2, 0, 6, 2, 0, 1, 0, 0]"] ;
625 -> 626 ;
627 [label="X[510] <= 7.0\ngini = 0.5\nsamples = 4\nvalue = [0, 0, 2, 0, 0, 2, 0, 0, 0, 0]"] ;
626 -> 627 ;
628 [label="gini = 0.0\nsamples = 2\nvalue = [0, 0, 0, 0, 0, 2, 0, 0, 0, 0]"] ;
627 -> 628 ;
629 [label="gini = 0.0\nsamples = 2\nvalue = [0, 0, 2, 0, 0, 0, 0, 0, 0, 0]"] ;
627 -> 629 ;
630 [label="X[388] <= 5.5\ngini = 0.2449\nsamples = 7\nvalue = [0, 0, 0, 0, 6, 0, 0, 1, 0, 0]"] ;
626 -> 630 ;
631 [label="gini = 0.0\nsamples = 6\nvalue = [0, 0, 0, 0, 6, 0, 0, 0, 0, 0]"] ;
630 -> 631 ;
632 [label="gini = 0.0\nsamples = 1\nvalue = [0, 0, 0, 0, 0, 0, 0, 1, 0, 0]"] ;
630 -> 632 ;
633 [label="X[205] <= 96.5\ngini = 0.258\nsamples = 35\nvalue = [0, 0, 2, 2, 0, 0, 0, 1, 0, 30]"] ;
625 -> 633 ;
634 [label="X[465] <= 254.5\ngini = 0.0624\nsamples = 31\nvalue = [0, 0, 0, 1, 0, 0, 0, 0, 0, 30]"] ;
633 -> 634 ;
635 [label="gini = 0.0\nsamples = 30\nvalue = [0, 0, 0, 0, 0, 0, 0, 0, 0, 30]"] ;
634 -> 635 ;
636 [label="gini = 0.0\nsamples = 1\nvalue = [0, 0, 0, 1, 0, 0, 0, 0, 0, 0]"] ;
634 -> 636 ;
637 [label="X[513] <= 29.5\ngini = 0.625\nsamples = 4\nvalue = [0, 0, 2, 1, 0, 0, 0, 1, 0, 0]"] ;
633 -> 637 ;
638 [label="X[657] <= 111.5\ngini = 0.5\nsamples = 2\nvalue = [0, 0, 0, 1, 0, 0, 0, 1, 0, 0]"] ;
637 -> 638 ;
639 [label="gini = 0.0\nsamples = 1\nvalue = [0, 0, 0, 1, 0, 0, 0, 0, 0, 0]"] ;
638 -> 639 ;
640 [label="gini = 0.0\nsamples = 1\nvalue = [0, 0, 0, 0, 0, 0, 0, 1, 0, 0]"] ;
638 -> 640 ;
641 [label="gini = 0.0\nsamples = 2\nvalue = [0, 0, 2, 0, 0, 0, 0, 0, 0, 0]"] ;
637 -> 641 ;
642 [label="X[349] <= 20.5\ngini = 0.5207\nsamples = 13\nvalue = [0, 0, 1, 4, 0, 0, 0, 0, 8, 0]"] ;
624 -> 642 ;
643 [label="X[175] <= 127.5\ngini = 0.32\nsamples = 5\nvalue = [0, 0, 1, 4, 0, 0, 0, 0, 0, 0]"] ;
642 -> 643 ;
644 [label="gini = 0.0\nsamples = 4\nvalue = [0, 0, 0, 4, 0, 0, 0, 0, 0, 0]"] ;
643 -> 644 ;
645 [label="gini = 0.0\nsamples = 1\nvalue = [0, 0, 1, 0, 0, 0, 0, 0, 0, 0]"] ;
643 -> 645 ;
646 [label="gini = 0.0\nsamples = 8\nvalue = [0, 0, 0, 0, 0, 0, 0, 0, 8, 0]"] ;
642 -> 646 ;
647 [label="X[546] <= 86.0\ngini = 0.5328\nsamples = 31\nvalue = [0, 0, 0, 6, 2, 0, 0, 20, 0, 3]"] ;
623 -> 647 ;
648 [label="X[265] <= 112.5\ngini = 0.6116\nsamples = 11\nvalue = [0, 0, 0, 6, 1, 0, 0, 1, 0, 3]"] ;
647 -> 648 ;
649 [label="X[407] <= 192.0\ngini = 0.56\nsamples = 5\nvalue = [0, 0, 0, 0, 1, 0, 0, 1, 0, 3]"] ;
648 -> 649 ;
650 [label="gini = 0.0\nsamples = 3\nvalue = [0, 0, 0, 0, 0, 0, 0, 0, 0, 3]"] ;
649 -> 650 ;
651 [label="X[399] <= 127.0\ngini = 0.5\nsamples = 2\nvalue = [0, 0, 0, 0, 1, 0, 0, 1, 0, 0]"] ;
649 -> 651 ;
652 [label="gini = 0.0\nsamples = 1\nvalue = [0, 0, 0, 0, 0, 0, 0, 1, 0, 0]"] ;
651 -> 652 ;
653 [label="gini = 0.0\nsamples = 1\nvalue = [0, 0, 0, 0, 1, 0, 0, 0, 0, 0]"] ;
651 -> 653 ;
654 [label="gini = 0.0\nsamples = 6\nvalue = [0, 0, 0, 6, 0, 0, 0, 0, 0, 0]"] ;
648 -> 654 ;
655 [label="X[348] <= 167.0\ngini = 0.095\nsamples = 20\nvalue = [0, 0, 0, 0, 1, 0, 0, 19, 0, 0]"] ;
647 -> 655 ;
656 [label="gini = 0.0\nsamples = 19\nvalue = [0, 0, 0, 0, 0, 0, 0, 19, 0, 0]"] ;
655 -> 656 ;
657 [label="gini = 0.0\nsamples = 1\nvalue = [0, 0, 0, 0, 1, 0, 0, 0, 0, 0]"] ;
655 -> 657 ;
658 [label="X[486] <= 19.0\ngini = 0.5317\nsamples = 64\nvalue = [0, 0, 4, 43, 2, 2, 3, 4, 4, 2]"] ;
622 -> 658 ;
659 [label="X[546] <= 236.0\ngini = 0.2848\nsamples = 50\nvalue = [0, 0, 0, 42, 0, 2, 0, 4, 2, 0]"] ;
658 -> 659 ;
660 [label="X[128] <= 57.0\ngini = 0.1659\nsamples = 45\nvalue = [0, 0, 0, 41, 0, 2, 0, 0, 2, 0]"] ;
659 -> 660 ;
661 [label="X[399] <= 30.5\ngini = 0.0465\nsamples = 42\nvalue = [0, 0, 0, 41, 0, 0, 0, 0, 1, 0]"] ;
660 -> 661 ;
662 [label="gini = 0.0\nsamples = 41\nvalue = [0, 0, 0, 41, 0, 0, 0, 0, 0, 0]"] ;
661 -> 662 ;
663 [label="gini = 0.0\nsamples = 1\nvalue = [0, 0, 0, 0, 0, 0, 0, 0, 1, 0]"] ;
661 -> 663 ;
664 [label="X[327] <= 127.5\ngini = 0.4444\nsamples = 3\nvalue = [0, 0, 0, 0, 0, 2, 0, 0, 1, 0]"] ;
660 -> 664 ;
665 [label="gini = 0.0\nsamples = 2\nvalue = [0, 0, 0, 0, 0, 2, 0, 0, 0, 0]"] ;
664 -> 665 ;
666 [label="gini = 0.0\nsamples = 1\nvalue = [0, 0, 0, 0, 0, 0, 0, 0, 1, 0]"] ;
664 -> 666 ;
667 [label="X[291] <= 2.5\ngini = 0.32\nsamples = 5\nvalue = [0, 0, 0, 1, 0, 0, 0, 4, 0, 0]"] ;
659 -> 667 ;
668 [label="gini = 0.0\nsamples = 4\nvalue = [0, 0, 0, 0, 0, 0, 0, 4, 0, 0]"] ;
667 -> 668 ;
669 [label="gini = 0.0\nsamples = 1\nvalue = [0, 0, 0, 1, 0, 0, 0, 0, 0, 0]"] ;
667 -> 669 ;
670 [label="X[407] <= 114.5\ngini = 0.8061\nsamples = 14\nvalue = [0, 0, 4, 1, 2, 0, 3, 0, 2, 2]"] ;
658 -> 670 ;
671 [label="gini = 0.0\nsamples = 4\nvalue = [0, 0, 4, 0, 0, 0, 0, 0, 0, 0]"] ;
670 -> 671 ;
672 [label="X[95] <= 17.5\ngini = 0.78\nsamples = 10\nvalue = [0, 0, 0, 1, 2, 0, 3, 0, 2, 2]"] ;
670 -> 672 ;
673 [label="X[319] <= 126.5\ngini = 0.7347\nsamples = 7\nvalue = [0, 0, 0, 1, 2, 0, 0, 0, 2, 2]"] ;
672 -> 673 ;
674 [label="X[286] <= 115.5\ngini = 0.64\nsamples = 5\nvalue = [0, 0, 0, 1, 2, 0, 0, 0, 0, 2]"] ;
673 -> 674 ;
675 [label="X[215] <= 9.5\ngini = 0.4444\nsamples = 3\nvalue = [0, 0, 0, 1, 2, 0, 0, 0, 0, 0]"] ;
674 -> 675 ;
676 [label="gini = 0.0\nsamples = 1\nvalue = [0, 0, 0, 1, 0, 0, 0, 0, 0, 0]"] ;
675 -> 676 ;
677 [label="gini = 0.0\nsamples = 2\nvalue = [0, 0, 0, 0, 2, 0, 0, 0, 0, 0]"] ;
675 -> 677 ;
678 [label="gini = 0.0\nsamples = 2\nvalue = [0, 0, 0, 0, 0, 0, 0, 0, 0, 2]"] ;
674 -> 678 ;
679 [label="gini = 0.0\nsamples = 2\nvalue = [0, 0, 0, 0, 0, 0, 0, 0, 2, 0]"] ;
673 -> 679 ;
680 [label="gini = 0.0\nsamples = 3\nvalue = [0, 0, 0, 0, 0, 0, 3, 0, 0, 0]"] ;
672 -> 680 ;
681 [label="X[544] <= 126.5\ngini = 0.0225\nsamples = 88\nvalue = [0, 0, 0, 87, 0, 0, 0, 0, 0, 1]"] ;
621 -> 681 ;
682 [label="gini = 0.0\nsamples = 87\nvalue = [0, 0, 0, 87, 0, 0, 0, 0, 0, 0]"] ;
681 -> 682 ;
683 [label="gini = 0.0\nsamples = 1\nvalue = [0, 0, 0, 0, 0, 0, 0, 0, 0, 1]"] ;
681 -> 683 ;
684 [label="X[210] <= 22.5\ngini = 0.6235\nsamples = 406\nvalue = [0, 0, 0, 19, 87, 14, 1, 10, 48, 227]"] ;
620 -> 684 ;
685 [label="X[155] <= 22.5\ngini = 0.5478\nsamples = 118\nvalue = [0, 0, 0, 6, 77, 4, 1, 7, 11, 12]"] ;
684 -> 685 ;
686 [label="X[266] <= 31.5\ngini = 0.3819\nsamples = 98\nvalue = [0, 0, 0, 0, 76, 1, 1, 7, 3, 10]"] ;
685 -> 686 ;
687 [label="X[368] <= 142.0\ngini = 0.1832\nsamples = 82\nvalue = [0, 0, 0, 0, 74, 1, 1, 3, 1, 2]"] ;
686 -> 687 ;
688 [label="X[374] <= 9.0\ngini = 0.1215\nsamples = 79\nvalue = [0, 0, 0, 0, 74, 1, 1, 0, 1, 2]"] ;
687 -> 688 ;
689 [label="X[466] <= 69.0\ngini = 0.75\nsamples = 4\nvalue = [0, 0, 0, 0, 0, 1, 1, 0, 1, 1]"] ;
688 -> 689 ;
690 [label="X[206] <= 60.5\ngini = 0.6667\nsamples = 3\nvalue = [0, 0, 0, 0, 0, 0, 1, 0, 1, 1]"] ;
689 -> 690 ;
691 [label="gini = 0.0\nsamples = 1\nvalue = [0, 0, 0, 0, 0, 0, 0, 0, 1, 0]"] ;
690 -> 691 ;
692 [label="X[521] <= 3.5\ngini = 0.5\nsamples = 2\nvalue = [0, 0, 0, 0, 0, 0, 1, 0, 0, 1]"] ;
690 -> 692 ;
693 [label="gini = 0.0\nsamples = 1\nvalue = [0, 0, 0, 0, 0, 0, 1, 0, 0, 0]"] ;
692 -> 693 ;
694 [label="gini = 0.0\nsamples = 1\nvalue = [0, 0, 0, 0, 0, 0, 0, 0, 0, 1]"] ;
692 -> 694 ;
695 [label="gini = 0.0\nsamples = 1\nvalue = [0, 0, 0, 0, 0, 1, 0, 0, 0, 0]"] ;
689 -> 695 ;
696 [label="X[182] <= 119.0\ngini = 0.0263\nsamples = 75\nvalue = [0, 0, 0, 0, 74, 0, 0, 0, 0, 1]"] ;
688 -> 696 ;
697 [label="gini = 0.0\nsamples = 73\nvalue = [0, 0, 0, 0, 73, 0, 0, 0, 0, 0]"] ;
696 -> 697 ;
698 [label="X[353] <= 212.5\ngini = 0.5\nsamples = 2\nvalue = [0, 0, 0, 0, 1, 0, 0, 0, 0, 1]"] ;
696 -> 698 ;
699 [label="gini = 0.0\nsamples = 1\nvalue = [0, 0, 0, 0, 1, 0, 0, 0, 0, 0]"] ;
698 -> 699 ;
700 [label="gini = 0.0\nsamples = 1\nvalue = [0, 0, 0, 0, 0, 0, 0, 0, 0, 1]"] ;
698 -> 700 ;
701 [label="gini = 0.0\nsamples = 3\nvalue = [0, 0, 0, 0, 0, 0, 0, 3, 0, 0]"] ;
687 -> 701 ;
702 [label="X[413] <= 3.5\ngini = 0.6562\nsamples = 16\nvalue = [0, 0, 0, 0, 2, 0, 0, 4, 2, 8]"] ;
686 -> 702 ;
703 [label="X[184] <= 14.5\ngini = 0.5\nsamples = 12\nvalue = [0, 0, 0, 0, 2, 0, 0, 0, 2, 8]"] ;
702 -> 703 ;
704 [label="gini = 0.0\nsamples = 8\nvalue = [0, 0, 0, 0, 0, 0, 0, 0, 0, 8]"] ;
703 -> 704 ;
705 [label="X[372] <= 31.5\ngini = 0.5\nsamples = 4\nvalue = [0, 0, 0, 0, 2, 0, 0, 0, 2, 0]"] ;
703 -> 705 ;
706 [label="gini = 0.0\nsamples = 2\nvalue = [0, 0, 0, 0, 0, 0, 0, 0, 2, 0]"] ;
705 -> 706 ;
707 [label="gini = 0.0\nsamples = 2\nvalue = [0, 0, 0, 0, 2, 0, 0, 0, 0, 0]"] ;
705 -> 707 ;
708 [label="gini = 0.0\nsamples = 4\nvalue = [0, 0, 0, 0, 0, 0, 0, 4, 0, 0]"] ;
702 -> 708 ;
709 [label="X[658] <= 167.5\ngini = 0.715\nsamples = 20\nvalue = [0, 0, 0, 6, 1, 3, 0, 0, 8, 2]"] ;
685 -> 709 ;
710 [label="X[606] <= 254.0\ngini = 0.2449\nsamples = 7\nvalue = [0, 0, 0, 6, 1, 0, 0, 0, 0, 0]"] ;
709 -> 710 ;
711 [label="gini = 0.0\nsamples = 6\nvalue = [0, 0, 0, 6, 0, 0, 0, 0, 0, 0]"] ;
710 -> 711 ;
712 [label="gini = 0.0\nsamples = 1\nvalue = [0, 0, 0, 0, 1, 0, 0, 0, 0, 0]"] ;
710 -> 712 ;
713 [label="X[411] <= 34.0\ngini = 0.5444\nsamples = 13\nvalue = [0, 0, 0, 0, 0, 3, 0, 0, 8, 2]"] ;
709 -> 713 ;
714 [label="X[346] <= 253.5\ngini = 0.32\nsamples = 10\nvalue = [0, 0, 0, 0, 0, 0, 0, 0, 8, 2]"] ;
713 -> 714 ;
715 [label="gini = 0.0\nsamples = 8\nvalue = [0, 0, 0, 0, 0, 0, 0, 0, 8, 0]"] ;
714 -> 715 ;
716 [label="gini = 0.0\nsamples = 2\nvalue = [0, 0, 0, 0, 0, 0, 0, 0, 0, 2]"] ;
714 -> 716 ;
717 [label="gini = 0.0\nsamples = 3\nvalue = [0, 0, 0, 0, 0, 3, 0, 0, 0, 0]"] ;
713 -> 717 ;
718 [label="X[579] <= 9.0\ngini = 0.4216\nsamples = 288\nvalue = [0, 0, 0, 13, 10, 10, 0, 3, 37, 215]"] ;
684 -> 718 ;
719 [label="X[156] <= 33.5\ngini = 0.2746\nsamples = 243\nvalue = [0, 0, 0, 5, 10, 3, 0, 3, 16, 206]"] ;
718 -> 719 ;
720 [label="X[211] <= 1.5\ngini = 0.1861\nsamples = 221\nvalue = [0, 0, 0, 4, 10, 0, 0, 3, 5, 199]"] ;
719 -> 720 ;
721 [label="X[549] <= 155.0\ngini = 0.2778\nsamples = 6\nvalue = [0, 0, 0, 0, 5, 0, 0, 0, 0, 1]"] ;
720 -> 721 ;
722 [label="gini = 0.0\nsamples = 5\nvalue = [0, 0, 0, 0, 5, 0, 0, 0, 0, 0]"] ;
721 -> 722 ;
723 [label="gini = 0.0\nsamples = 1\nvalue = [0, 0, 0, 0, 0, 0, 0, 0, 0, 1]"] ;
721 -> 723 ;
724 [label="X[651] <= 42.5\ngini = 0.1503\nsamples = 215\nvalue = [0, 0, 0, 4, 5, 0, 0, 3, 5, 198]"] ;
720 -> 724 ;
725 [label="X[543] <= 54.0\ngini = 0.1264\nsamples = 212\nvalue = [0, 0, 0, 1, 5, 0, 0, 3, 5, 198]"] ;
724 -> 725 ;
726 [label="X[379] <= 4.0\ngini = 0.11\nsamples = 210\nvalue = [0, 0, 0, 1, 5, 0, 0, 3, 3, 198]"] ;
725 -> 726 ;
727 [label="X[264] <= 248.0\ngini = 0.64\nsamples = 10\nvalue = [0, 0, 0, 0, 3, 0, 0, 1, 1, 5]"] ;
726 -> 727 ;
728 [label="X[432] <= 14.5\ngini = 0.449\nsamples = 7\nvalue = [0, 0, 0, 0, 0, 0, 0, 1, 1, 5]"] ;
727 -> 728 ;
729 [label="gini = 0.5\nsamples = 2\nvalue = [0, 0, 0, 0, 0, 0, 0, 1, 1, 0]"] ;
728 -> 729 ;
730 [label="gini = 0.0\nsamples = 5\nvalue = [0, 0, 0, 0, 0, 0, 0, 0, 0, 5]"] ;
728 -> 730 ;
731 [label="gini = 0.0\nsamples = 3\nvalue = [0, 0, 0, 0, 3, 0, 0, 0, 0, 0]"] ;
727 -> 731 ;
732 [label="X[439] <= 254.5\ngini = 0.0685\nsamples = 200\nvalue = [0, 0, 0, 1, 2, 0, 0, 2, 2, 193]"] ;
726 -> 732 ;
733 [label="X[230] <= 147.0\ngini = 0.0591\nsamples = 199\nvalue = [0, 0, 0, 0, 2, 0, 0, 2, 2, 193]"] ;
732 -> 733 ;
734 [label="gini = 0.0496\nsamples = 198\nvalue = [0, 0, 0, 0, 2, 0, 0, 1, 2, 193]"] ;
733 -> 734 ;
735 [label="gini = 0.0\nsamples = 1\nvalue = [0, 0, 0, 0, 0, 0, 0, 1, 0, 0]"] ;
733 -> 735 ;
736 [label="gini = 0.0\nsamples = 1\nvalue = [0, 0, 0, 1, 0, 0, 0, 0, 0, 0]"] ;
732 -> 736 ;
737 [label="gini = 0.0\nsamples = 2\nvalue = [0, 0, 0, 0, 0, 0, 0, 0, 2, 0]"] ;
725 -> 737 ;
738 [label="gini = 0.0\nsamples = 3\nvalue = [0, 0, 0, 3, 0, 0, 0, 0, 0, 0]"] ;
724 -> 738 ;
739 [label="X[434] <= 189.0\ngini = 0.6281\nsamples = 22\nvalue = [0, 0, 0, 1, 0, 3, 0, 0, 11, 7]"] ;
719 -> 739 ;
740 [label="X[439] <= 96.5\ngini = 0.5124\nsamples = 11\nvalue = [0, 0, 0, 1, 0, 3, 0, 0, 0, 7]"] ;
739 -> 740 ;
741 [label="gini = 0.0\nsamples = 6\nvalue = [0, 0, 0, 0, 0, 0, 0, 0, 0, 6]"] ;
740 -> 741 ;
742 [label="X[319] <= 172.0\ngini = 0.56\nsamples = 5\nvalue = [0, 0, 0, 1, 0, 3, 0, 0, 0, 1]"] ;
740 -> 742 ;
743 [label="X[381] <= 129.0\ngini = 0.5\nsamples = 2\nvalue = [0, 0, 0, 1, 0, 0, 0, 0, 0, 1]"] ;
742 -> 743 ;
744 [label="gini = 0.0\nsamples = 1\nvalue = [0, 0, 0, 0, 0, 0, 0, 0, 0, 1]"] ;
743 -> 744 ;
745 [label="gini = 0.0\nsamples = 1\nvalue = [0, 0, 0, 1, 0, 0, 0, 0, 0, 0]"] ;
743 -> 745 ;
746 [label="gini = 0.0\nsamples = 3\nvalue = [0, 0, 0, 0, 0, 3, 0, 0, 0, 0]"] ;
742 -> 746 ;
747 [label="gini = 0.0\nsamples = 11\nvalue = [0, 0, 0, 0, 0, 0, 0, 0, 11, 0]"] ;
739 -> 747 ;
748 [label="X[463] <= 35.0\ngini = 0.6864\nsamples = 45\nvalue = [0, 0, 0, 8, 0, 7, 0, 0, 21, 9]"] ;
718 -> 748 ;
749 [label="X[408] <= 149.0\ngini = 0.6848\nsamples = 21\nvalue = [0, 0, 0, 5, 0, 7, 0, 0, 1, 8]"] ;
748 -> 749 ;
750 [label="X[152] <= 192.0\ngini = 0.2188\nsamples = 8\nvalue = [0, 0, 0, 0, 0, 7, 0, 0, 0, 1]"] ;
749 -> 750 ;
751 [label="gini = 0.0\nsamples = 7\nvalue = [0, 0, 0, 0, 0, 7, 0, 0, 0, 0]"] ;
750 -> 751 ;
752 [label="gini = 0.0\nsamples = 1\nvalue = [0, 0, 0, 0, 0, 0, 0, 0, 0, 1]"] ;
750 -> 752 ;
753 [label="X[260] <= 5.0\ngini = 0.5562\nsamples = 13\nvalue = [0, 0, 0, 5, 0, 0, 0, 0, 1, 7]"] ;
749 -> 753 ;
754 [label="gini = 0.0\nsamples = 5\nvalue = [0, 0, 0, 5, 0, 0, 0, 0, 0, 0]"] ;
753 -> 754 ;
755 [label="X[657] <= 220.0\ngini = 0.2188\nsamples = 8\nvalue = [0, 0, 0, 0, 0, 0, 0, 0, 1, 7]"] ;
753 -> 755 ;
756 [label="gini = 0.0\nsamples = 7\nvalue = [0, 0, 0, 0, 0, 0, 0, 0, 0, 7]"] ;
755 -> 756 ;
757 [label="gini = 0.0\nsamples = 1\nvalue = [0, 0, 0, 0, 0, 0, 0, 0, 1, 0]"] ;
755 -> 757 ;
758 [label="X[376] <= 14.5\ngini = 0.2882\nsamples = 24\nvalue = [0, 0, 0, 3, 0, 0, 0, 0, 20, 1]"] ;
748 -> 758 ;
759 [label="gini = 0.0\nsamples = 3\nvalue = [0, 0, 0, 3, 0, 0, 0, 0, 0, 0]"] ;
758 -> 759 ;
760 [label="X[412] <= 4.5\ngini = 0.0907\nsamples = 21\nvalue = [0, 0, 0, 0, 0, 0, 0, 0, 20, 1]"] ;
758 -> 760 ;
761 [label="gini = 0.0\nsamples = 20\nvalue = [0, 0, 0, 0, 0, 0, 0, 0, 20, 0]"] ;
760 -> 761 ;
762 [label="gini = 0.0\nsamples = 1\nvalue = [0, 0, 0, 0, 0, 0, 0, 0, 0, 1]"] ;
760 -> 762 ;
763 [label="X[376] <= 3.5\ngini = 0.7482\nsamples = 1681\nvalue = [5, 297, 152, 29, 46, 32, 140, 133, 740, 107]"] ;
501 -> 763 ;
764 [label="X[207] <= 0.5\ngini = 0.7431\nsamples = 686\nvalue = [0, 283, 140, 18, 4, 2, 69, 121, 13, 36]"] ;
763 -> 764 ;
765 [label="X[292] <= 7.0\ngini = 0.4374\nsamples = 383\nvalue = [0, 283, 30, 4, 2, 1, 15, 34, 3, 11]"] ;
764 -> 765 ;
766 [label="X[150] <= 4.5\ngini = 0.2455\nsamples = 325\nvalue = [0, 281, 23, 1, 2, 0, 14, 2, 2, 0]"] ;
765 -> 766 ;
767 [label="X[549] <= 12.0\ngini = 0.0861\nsamples = 294\nvalue = [0, 281, 4, 1, 1, 0, 3, 2, 2, 0]"] ;
766 -> 767 ;
768 [label="X[182] <= 57.5\ngini = 0.0479\nsamples = 288\nvalue = [0, 281, 1, 1, 1, 0, 0, 2, 2, 0]"] ;
767 -> 768 ;
769 [label="X[437] <= 93.5\ngini = 0.0141\nsamples = 283\nvalue = [0, 281, 0, 1, 1, 0, 0, 0, 0, 0]"] ;
768 -> 769 ;
770 [label="gini = 0.0\nsamples = 281\nvalue = [0, 281, 0, 0, 0, 0, 0, 0, 0, 0]"] ;
769 -> 770 ;
771 [label="X[162] <= 43.0\ngini = 0.5\nsamples = 2\nvalue = [0, 0, 0, 1, 1, 0, 0, 0, 0, 0]"] ;
769 -> 771 ;
772 [label="gini = 0.0\nsamples = 1\nvalue = [0, 0, 0, 1, 0, 0, 0, 0, 0, 0]"] ;
771 -> 772 ;
773 [label="gini = 0.0\nsamples = 1\nvalue = [0, 0, 0, 0, 1, 0, 0, 0, 0, 0]"] ;
771 -> 773 ;
774 [label="X[350] <= 57.5\ngini = 0.64\nsamples = 5\nvalue = [0, 0, 1, 0, 0, 0, 0, 2, 2, 0]"] ;
768 -> 774 ;
775 [label="gini = 0.0\nsamples = 2\nvalue = [0, 0, 0, 0, 0, 0, 0, 2, 0, 0]"] ;
774 -> 775 ;
776 [label="X[212] <= 213.5\ngini = 0.4444\nsamples = 3\nvalue = [0, 0, 1, 0, 0, 0, 0, 0, 2, 0]"] ;
774 -> 776 ;
777 [label="gini = 0.0\nsamples = 2\nvalue = [0, 0, 0, 0, 0, 0, 0, 0, 2, 0]"] ;
776 -> 777 ;
778 [label="gini = 0.0\nsamples = 1\nvalue = [0, 0, 1, 0, 0, 0, 0, 0, 0, 0]"] ;
776 -> 778 ;
779 [label="X[399] <= 64.5\ngini = 0.5\nsamples = 6\nvalue = [0, 0, 3, 0, 0, 0, 3, 0, 0, 0]"] ;
767 -> 779 ;
780 [label="gini = 0.0\nsamples = 3\nvalue = [0, 0, 3, 0, 0, 0, 0, 0, 0, 0]"] ;
779 -> 780 ;
781 [label="gini = 0.0\nsamples = 3\nvalue = [0, 0, 0, 0, 0, 0, 3, 0, 0, 0]"] ;
779 -> 781 ;
782 [label="X[205] <= 48.0\ngini = 0.4974\nsamples = 31\nvalue = [0, 0, 19, 0, 1, 0, 11, 0, 0, 0]"] ;
766 -> 782 ;
783 [label="gini = 0.0\nsamples = 19\nvalue = [0, 0, 19, 0, 0, 0, 0, 0, 0, 0]"] ;
782 -> 783 ;
784 [label="X[406] <= 178.0\ngini = 0.1528\nsamples = 12\nvalue = [0, 0, 0, 0, 1, 0, 11, 0, 0, 0]"] ;
782 -> 784 ;
785 [label="gini = 0.0\nsamples = 1\nvalue = [0, 0, 0, 0, 1, 0, 0, 0, 0, 0]"] ;
784 -> 785 ;
786 [label="gini = 0.0\nsamples = 11\nvalue = [0, 0, 0, 0, 0, 0, 11, 0, 0, 0]"] ;
784 -> 786 ;
787 [label="X[456] <= 185.5\ngini = 0.6403\nsamples = 58\nvalue = [0, 2, 7, 3, 0, 1, 1, 32, 1, 11]"] ;
765 -> 787 ;
788 [label="X[270] <= 172.0\ngini = 0.507\nsamples = 47\nvalue = [0, 2, 7, 3, 0, 1, 1, 32, 0, 1]"] ;
787 -> 788 ;
789 [label="X[487] <= 3.5\ngini = 0.6735\nsamples = 14\nvalue = [0, 0, 7, 2, 0, 1, 1, 3, 0, 0]"] ;
788 -> 789 ;
790 [label="X[572] <= 199.0\ngini = 0.6111\nsamples = 6\nvalue = [0, 0, 0, 2, 0, 1, 0, 3, 0, 0]"] ;
789 -> 790 ;
791 [label="X[483] <= 80.0\ngini = 0.4444\nsamples = 3\nvalue = [0, 0, 0, 2, 0, 1, 0, 0, 0, 0]"] ;
790 -> 791 ;
792 [label="gini = 0.0\nsamples = 2\nvalue = [0, 0, 0, 2, 0, 0, 0, 0, 0, 0]"] ;
791 -> 792 ;
793 [label="gini = 0.0\nsamples = 1\nvalue = [0, 0, 0, 0, 0, 1, 0, 0, 0, 0]"] ;
791 -> 793 ;
794 [label="gini = 0.0\nsamples = 3\nvalue = [0, 0, 0, 0, 0, 0, 0, 3, 0, 0]"] ;
790 -> 794 ;
795 [label="X[432] <= 233.0\ngini = 0.2188\nsamples = 8\nvalue = [0, 0, 7, 0, 0, 0, 1, 0, 0, 0]"] ;
789 -> 795 ;
796 [label="gini = 0.0\nsamples = 7\nvalue = [0, 0, 7, 0, 0, 0, 0, 0, 0, 0]"] ;
795 -> 796 ;
797 [label="gini = 0.0\nsamples = 1\nvalue = [0, 0, 0, 0, 0, 0, 1, 0, 0, 0]"] ;
795 -> 797 ;
798 [label="X[266] <= 20.0\ngini = 0.2222\nsamples = 33\nvalue = [0, 2, 0, 1, 0, 0, 0, 29, 0, 1]"] ;
788 -> 798 ;
799 [label="X[490] <= 183.5\ngini = 0.5\nsamples = 2\nvalue = [0, 1, 0, 0, 0, 0, 0, 0, 0, 1]"] ;
798 -> 799 ;
800 [label="gini = 0.0\nsamples = 1\nvalue = [0, 0, 0, 0, 0, 0, 0, 0, 0, 1]"] ;
799 -> 800 ;
801 [label="gini = 0.0\nsamples = 1\nvalue = [0, 1, 0, 0, 0, 0, 0, 0, 0, 0]"] ;
799 -> 801 ;
802 [label="X[325] <= 70.5\ngini = 0.1228\nsamples = 31\nvalue = [0, 1, 0, 1, 0, 0, 0, 29, 0, 0]"] ;
798 -> 802 ;
803 [label="gini = 0.0\nsamples = 1\nvalue = [0, 0, 0, 1, 0, 0, 0, 0, 0, 0]"] ;
802 -> 803 ;
804 [label="X[377] <= 14.0\ngini = 0.0644\nsamples = 30\nvalue = [0, 1, 0, 0, 0, 0, 0, 29, 0, 0]"] ;
802 -> 804 ;
805 [label="gini = 0.0\nsamples = 29\nvalue = [0, 0, 0, 0, 0, 0, 0, 29, 0, 0]"] ;
804 -> 805 ;
806 [label="gini = 0.0\nsamples = 1\nvalue = [0, 1, 0, 0, 0, 0, 0, 0, 0, 0]"] ;
804 -> 806 ;
807 [label="X[326] <= 253.5\ngini = 0.1653\nsamples = 11\nvalue = [0, 0, 0, 0, 0, 0, 0, 0, 1, 10]"] ;
787 -> 807 ;
808 [label="gini = 0.0\nsamples = 10\nvalue = [0, 0, 0, 0, 0, 0, 0, 0, 0, 10]"] ;
807 -> 808 ;
809 [label="gini = 0.0\nsamples = 1\nvalue = [0, 0, 0, 0, 0, 0, 0, 0, 1, 0]"] ;
807 -> 809 ;
810 [label="X[484] <= 6.0\ngini = 0.7439\nsamples = 303\nvalue = [0, 0, 110, 14, 2, 1, 54, 87, 10, 25]"] ;
764 -> 810 ;
811 [label="X[606] <= 1.0\ngini = 0.5931\nsamples = 217\nvalue = [0, 0, 108, 13, 0, 1, 0, 85, 10, 0]"] ;
810 -> 811 ;
812 [label="X[550] <= 86.5\ngini = 0.4918\nsamples = 123\nvalue = [0, 0, 22, 10, 0, 0, 0, 84, 7, 0]"] ;
811 -> 812 ;
813 [label="X[155] <= 21.5\ngini = 0.3908\nsamples = 108\nvalue = [0, 0, 9, 10, 0, 0, 0, 83, 6, 0]"] ;
812 -> 813 ;
814 [label="X[690] <= 69.5\ngini = 0.2026\nsamples = 91\nvalue = [0, 0, 5, 4, 0, 0, 0, 81, 1, 0]"] ;
813 -> 814 ;
815 [label="X[572] <= 34.0\ngini = 0.1106\nsamples = 86\nvalue = [0, 0, 0, 4, 0, 0, 0, 81, 1, 0]"] ;
814 -> 815 ;
816 [label="X[464] <= 139.0\ngini = 0.58\nsamples = 10\nvalue = [0, 0, 0, 4, 0, 0, 0, 5, 1, 0]"] ;
815 -> 816 ;
817 [label="X[517] <= 101.0\ngini = 0.32\nsamples = 5\nvalue = [0, 0, 0, 4, 0, 0, 0, 0, 1, 0]"] ;
816 -> 817 ;
818 [label="gini = 0.0\nsamples = 1\nvalue = [0, 0, 0, 0, 0, 0, 0, 0, 1, 0]"] ;
817 -> 818 ;
819 [label="gini = 0.0\nsamples = 4\nvalue = [0, 0, 0, 4, 0, 0, 0, 0, 0, 0]"] ;
817 -> 819 ;
820 [label="gini = 0.0\nsamples = 5\nvalue = [0, 0, 0, 0, 0, 0, 0, 5, 0, 0]"] ;
816 -> 820 ;
821 [label="gini = 0.0\nsamples = 76\nvalue = [0, 0, 0, 0, 0, 0, 0, 76, 0, 0]"] ;
815 -> 821 ;
822 [label="gini = 0.0\nsamples = 5\nvalue = [0, 0, 5, 0, 0, 0, 0, 0, 0, 0]"] ;
814 -> 822 ;
823 [label="X[689] <= 35.0\ngini = 0.7197\nsamples = 17\nvalue = [0, 0, 4, 6, 0, 0, 0, 2, 5, 0]"] ;
813 -> 823 ;
824 [label="X[183] <= 232.0\ngini = 0.6154\nsamples = 13\nvalue = [0, 0, 0, 6, 0, 0, 0, 2, 5, 0]"] ;
823 -> 824 ;
825 [label="gini = 0.0\nsamples = 5\nvalue = [0, 0, 0, 0, 0, 0, 0, 0, 5, 0]"] ;
824 -> 825 ;
826 [label="X[466] <= 85.5\ngini = 0.375\nsamples = 8\nvalue = [0, 0, 0, 6, 0, 0, 0, 2, 0, 0]"] ;
824 -> 826 ;
827 [label="gini = 0.0\nsamples = 6\nvalue = [0, 0, 0, 6, 0, 0, 0, 0, 0, 0]"] ;
826 -> 827 ;
828 [label="gini = 0.0\nsamples = 2\nvalue = [0, 0, 0, 0, 0, 0, 0, 2, 0, 0]"] ;
826 -> 828 ;
829 [label="gini = 0.0\nsamples = 4\nvalue = [0, 0, 4, 0, 0, 0, 0, 0, 0, 0]"] ;
823 -> 829 ;
830 [label="X[244] <= 4.5\ngini = 0.24\nsamples = 15\nvalue = [0, 0, 13, 0, 0, 0, 0, 1, 1, 0]"] ;
812 -> 830 ;
831 [label="gini = 0.0\nsamples = 13\nvalue = [0, 0, 13, 0, 0, 0, 0, 0, 0, 0]"] ;
830 -> 831 ;
832 [label="X[601] <= 16.0\ngini = 0.5\nsamples = 2\nvalue = [0, 0, 0, 0, 0, 0, 0, 1, 1, 0]"] ;
830 -> 832 ;
833 [label="gini = 0.0\nsamples = 1\nvalue = [0, 0, 0, 0, 0, 0, 0, 0, 1, 0]"] ;
832 -> 833 ;
834 [label="gini = 0.0\nsamples = 1\nvalue = [0, 0, 0, 0, 0, 0, 0, 1, 0, 0]"] ;
832 -> 834 ;
835 [label="X[493] <= 68.0\ngini = 0.1607\nsamples = 94\nvalue = [0, 0, 86, 3, 0, 1, 0, 1, 3, 0]"] ;
811 -> 835 ;
836 [label="X[713] <= 172.5\ngini = 0.0468\nsamples = 84\nvalue = [0, 0, 82, 1, 0, 0, 0, 1, 0, 0]"] ;
835 -> 836 ;
837 [label="X[188] <= 193.5\ngini = 0.0238\nsamples = 83\nvalue = [0, 0, 82, 0, 0, 0, 0, 1, 0, 0]"] ;
836 -> 837 ;
838 [label="gini = 0.0\nsamples = 82\nvalue = [0, 0, 82, 0, 0, 0, 0, 0, 0, 0]"] ;
837 -> 838 ;
839 [label="gini = 0.0\nsamples = 1\nvalue = [0, 0, 0, 0, 0, 0, 0, 1, 0, 0]"] ;
837 -> 839 ;
840 [label="gini = 0.0\nsamples = 1\nvalue = [0, 0, 0, 1, 0, 0, 0, 0, 0, 0]"] ;
836 -> 840 ;
841 [label="X[601] <= 137.0\ngini = 0.7\nsamples = 10\nvalue = [0, 0, 4, 2, 0, 1, 0, 0, 3, 0]"] ;
835 -> 841 ;
842 [label="X[487] <= 87.5\ngini = 0.6111\nsamples = 6\nvalue = [0, 0, 0, 2, 0, 1, 0, 0, 3, 0]"] ;
841 -> 842 ;
843 [label="gini = 0.0\nsamples = 3\nvalue = [0, 0, 0, 0, 0, 0, 0, 0, 3, 0]"] ;
842 -> 843 ;
844 [label="X[549] <= 97.5\ngini = 0.4444\nsamples = 3\nvalue = [0, 0, 0, 2, 0, 1, 0, 0, 0, 0]"] ;
842 -> 844 ;
845 [label="gini = 0.0\nsamples = 1\nvalue = [0, 0, 0, 0, 0, 1, 0, 0, 0, 0]"] ;
844 -> 845 ;
846 [label="gini = 0.0\nsamples = 2\nvalue = [0, 0, 0, 2, 0, 0, 0, 0, 0, 0]"] ;
844 -> 846 ;
847 [label="gini = 0.0\nsamples = 4\nvalue = [0, 0, 4, 0, 0, 0, 0, 0, 0, 0]"] ;
841 -> 847 ;
848 [label="X[269] <= 2.0\ngini = 0.5195\nsamples = 86\nvalue = [0, 0, 2, 1, 2, 0, 54, 2, 0, 25]"] ;
810 -> 848 ;
849 [label="X[542] <= 31.5\ngini = 0.101\nsamples = 57\nvalue = [0, 0, 0, 0, 1, 0, 54, 0, 0, 2]"] ;
848 -> 849 ;
850 [label="X[331] <= 15.5\ngini = 0.4444\nsamples = 3\nvalue = [0, 0, 0, 0, 1, 0, 0, 0, 0, 2]"] ;
849 -> 850 ;
851 [label="gini = 0.0\nsamples = 2\nvalue = [0, 0, 0, 0, 0, 0, 0, 0, 0, 2]"] ;
850 -> 851 ;
852 [label="gini = 0.0\nsamples = 1\nvalue = [0, 0, 0, 0, 1, 0, 0, 0, 0, 0]"] ;
850 -> 852 ;
853 [label="gini = 0.0\nsamples = 54\nvalue = [0, 0, 0, 0, 0, 0, 54, 0, 0, 0]"] ;
849 -> 853 ;
854 [label="X[316] <= 8.0\ngini = 0.3591\nsamples = 29\nvalue = [0, 0, 2, 1, 1, 0, 0, 2, 0, 23]"] ;
848 -> 854 ;
855 [label="X[540] <= 145.0\ngini = 0.7222\nsamples = 6\nvalue = [0, 0, 2, 1, 1, 0, 0, 2, 0, 0]"] ;
854 -> 855 ;
856 [label="X[325] <= 210.5\ngini = 0.625\nsamples = 4\nvalue = [0, 0, 0, 1, 1, 0, 0, 2, 0, 0]"] ;
855 -> 856 ;
857 [label="X[515] <= 131.5\ngini = 0.5\nsamples = 2\nvalue = [0, 0, 0, 1, 1, 0, 0, 0, 0, 0]"] ;
856 -> 857 ;
858 [label="gini = 0.0\nsamples = 1\nvalue = [0, 0, 0, 0, 1, 0, 0, 0, 0, 0]"] ;
857 -> 858 ;
859 [label="gini = 0.0\nsamples = 1\nvalue = [0, 0, 0, 1, 0, 0, 0, 0, 0, 0]"] ;
857 -> 859 ;
860 [label="gini = 0.0\nsamples = 2\nvalue = [0, 0, 0, 0, 0, 0, 0, 2, 0, 0]"] ;
856 -> 860 ;
861 [label="gini = 0.0\nsamples = 2\nvalue = [0, 0, 2, 0, 0, 0, 0, 0, 0, 0]"] ;
855 -> 861 ;
862 [label="gini = 0.0\nsamples = 23\nvalue = [0, 0, 0, 0, 0, 0, 0, 0, 0, 23]"] ;
854 -> 862 ;
863 [label="X[658] <= 5.5\ngini = 0.4526\nsamples = 995\nvalue = [5, 14, 12, 11, 42, 30, 71, 12, 727, 71]"] ;
763 -> 863 ;
864 [label="X[127] <= 14.0\ngini = 0.8126\nsamples = 278\nvalue = [1, 5, 11, 4, 37, 18, 69, 9, 55, 69]"] ;
863 -> 864 ;
865 [label="X[213] <= 63.5\ngini = 0.7912\nsamples = 206\nvalue = [0, 5, 7, 4, 37, 18, 11, 9, 46, 69]"] ;
864 -> 865 ;
866 [label="X[375] <= 243.5\ngini = 0.7628\nsamples = 94\nvalue = [0, 4, 4, 3, 35, 10, 10, 2, 25, 1]"] ;
865 -> 866 ;
867 [label="X[598] <= 17.5\ngini = 0.763\nsamples = 49\nvalue = [0, 3, 3, 1, 3, 6, 10, 2, 20, 1]"] ;
866 -> 867 ;
868 [label="X[510] <= 19.5\ngini = 0.8224\nsamples = 25\nvalue = [0, 2, 3, 1, 3, 6, 7, 1, 1, 1]"] ;
867 -> 868 ;
869 [label="X[548] <= 92.5\ngini = 0.8033\nsamples = 19\nvalue = [0, 2, 2, 1, 3, 1, 7, 1, 1, 1]"] ;
868 -> 869 ;
870 [label="X[438] <= 33.5\ngini = 0.8264\nsamples = 11\nvalue = [0, 2, 2, 1, 3, 0, 0, 1, 1, 1]"] ;
869 -> 870 ;
871 [label="X[398] <= 123.0\ngini = 0.8125\nsamples = 8\nvalue = [0, 2, 2, 1, 0, 0, 0, 1, 1, 1]"] ;
870 -> 871 ;
872 [label="X[460] <= 48.0\ngini = 0.7778\nsamples = 6\nvalue = [0, 2, 0, 1, 0, 0, 0, 1, 1, 1]"] ;
871 -> 872 ;
873 [label="gini = 0.75\nsamples = 4\nvalue = [0, 0, 0, 1, 0, 0, 0, 1, 1, 1]"] ;
872 -> 873 ;
874 [label="gini = 0.0\nsamples = 2\nvalue = [0, 2, 0, 0, 0, 0, 0, 0, 0, 0]"] ;
872 -> 874 ;
875 [label="gini = 0.0\nsamples = 2\nvalue = [0, 0, 2, 0, 0, 0, 0, 0, 0, 0]"] ;
871 -> 875 ;
876 [label="gini = 0.0\nsamples = 3\nvalue = [0, 0, 0, 0, 3, 0, 0, 0, 0, 0]"] ;
870 -> 876 ;
877 [label="X[604] <= 254.5\ngini = 0.2188\nsamples = 8\nvalue = [0, 0, 0, 0, 0, 1, 7, 0, 0, 0]"] ;
869 -> 877 ;
878 [label="gini = 0.0\nsamples = 7\nvalue = [0, 0, 0, 0, 0, 0, 7, 0, 0, 0]"] ;
877 -> 878 ;
879 [label="gini = 0.0\nsamples = 1\nvalue = [0, 0, 0, 0, 0, 1, 0, 0, 0, 0]"] ;
877 -> 879 ;
880 [label="X[386] <= 0.5\ngini = 0.2778\nsamples = 6\nvalue = [0, 0, 1, 0, 0, 5, 0, 0, 0, 0]"] ;
868 -> 880 ;
881 [label="gini = 0.0\nsamples = 5\nvalue = [0, 0, 0, 0, 0, 5, 0, 0, 0, 0]"] ;
880 -> 881 ;
882 [label="gini = 0.0\nsamples = 1\nvalue = [0, 0, 1, 0, 0, 0, 0, 0, 0, 0]"] ;
880 -> 882 ;
883 [label="X[267] <= 86.5\ngini = 0.3542\nsamples = 24\nvalue = [0, 1, 0, 0, 0, 0, 3, 1, 19, 0]"] ;
867 -> 883 ;
884 [label="gini = 0.0\nsamples = 19\nvalue = [0, 0, 0, 0, 0, 0, 0, 0, 19, 0]"] ;
883 -> 884 ;
885 [label="X[184] <= 78.5\ngini = 0.56\nsamples = 5\nvalue = [0, 1, 0, 0, 0, 0, 3, 1, 0, 0]"] ;
883 -> 885 ;
886 [label="X[598] <= 246.0\ngini = 0.5\nsamples = 2\nvalue = [0, 1, 0, 0, 0, 0, 0, 1, 0, 0]"] ;
885 -> 886 ;
887 [label="gini = 0.0\nsamples = 1\nvalue = [0, 1, 0, 0, 0, 0, 0, 0, 0, 0]"] ;
886 -> 887 ;
888 [label="gini = 0.0\nsamples = 1\nvalue = [0, 0, 0, 0, 0, 0, 0, 1, 0, 0]"] ;
886 -> 888 ;
889 [label="gini = 0.0\nsamples = 3\nvalue = [0, 0, 0, 0, 0, 0, 3, 0, 0, 0]"] ;
885 -> 889 ;
890 [label="X[381] <= 9.0\ngini = 0.4711\nsamples = 45\nvalue = [0, 1, 1, 2, 32, 4, 0, 0, 5, 0]"] ;
866 -> 890 ;
891 [label="X[273] <= 10.0\ngini = 0.716\nsamples = 9\nvalue = [0, 1, 1, 1, 0, 4, 0, 0, 2, 0]"] ;
890 -> 891 ;
892 [label="X[516] <= 208.0\ngini = 0.72\nsamples = 5\nvalue = [0, 1, 1, 1, 0, 0, 0, 0, 2, 0]"] ;
891 -> 892 ;
893 [label="X[514] <= 104.5\ngini = 0.6667\nsamples = 3\nvalue = [0, 1, 1, 1, 0, 0, 0, 0, 0, 0]"] ;
892 -> 893 ;
894 [label="X[553] <= 43.0\ngini = 0.5\nsamples = 2\nvalue = [0, 1, 0, 1, 0, 0, 0, 0, 0, 0]"] ;
893 -> 894 ;
895 [label="gini = 0.0\nsamples = 1\nvalue = [0, 1, 0, 0, 0, 0, 0, 0, 0, 0]"] ;
894 -> 895 ;
896 [label="gini = 0.0\nsamples = 1\nvalue = [0, 0, 0, 1, 0, 0, 0, 0, 0, 0]"] ;
894 -> 896 ;
897 [label="gini = 0.0\nsamples = 1\nvalue = [0, 0, 1, 0, 0, 0, 0, 0, 0, 0]"] ;
893 -> 897 ;
898 [label="gini = 0.0\nsamples = 2\nvalue = [0, 0, 0, 0, 0, 0, 0, 0, 2, 0]"] ;
892 -> 898 ;
899 [label="gini = 0.0\nsamples = 4\nvalue = [0, 0, 0, 0, 0, 4, 0, 0, 0, 0]"] ;
891 -> 899 ;
900 [label="X[576] <= 33.5\ngini = 0.2022\nsamples = 36\nvalue = [0, 0, 0, 1, 32, 0, 0, 0, 3, 0]"] ;
890 -> 900 ;
901 [label="gini = 0.0\nsamples = 32\nvalue = [0, 0, 0, 0, 32, 0, 0, 0, 0, 0]"] ;
900 -> 901 ;
902 [label="X[202] <= 126.5\ngini = 0.375\nsamples = 4\nvalue = [0, 0, 0, 1, 0, 0, 0, 0, 3, 0]"] ;
900 -> 902 ;
903 [label="gini = 0.0\nsamples = 3\nvalue = [0, 0, 0, 0, 0, 0, 0, 0, 3, 0]"] ;
902 -> 903 ;
904 [label="gini = 0.0\nsamples = 1\nvalue = [0, 0, 0, 1, 0, 0, 0, 0, 0, 0]"] ;
902 -> 904 ;
905 [label="X[460] <= 25.5\ngini = 0.5859\nsamples = 112\nvalue = [0, 1, 3, 1, 2, 8, 1, 7, 21, 68]"] ;
865 -> 905 ;
906 [label="X[521] <= 14.5\ngini = 0.2862\nsamples = 75\nvalue = [0, 0, 0, 0, 1, 2, 0, 4, 5, 63]"] ;
905 -> 906 ;
907 [label="X[268] <= 215.5\ngini = 0.1648\nsamples = 68\nvalue = [0, 0, 0, 0, 1, 0, 0, 4, 1, 62]"] ;
906 -> 907 ;
908 [label="X[206] <= 196.0\ngini = 0.0895\nsamples = 65\nvalue = [0, 0, 0, 0, 1, 0, 0, 1, 1, 62]"] ;
907 -> 908 ;
909 [label="X[323] <= 120.0\ngini = 0.0312\nsamples = 63\nvalue = [0, 0, 0, 0, 1, 0, 0, 0, 0, 62]"] ;
908 -> 909 ;
910 [label="gini = 0.0\nsamples = 62\nvalue = [0, 0, 0, 0, 0, 0, 0, 0, 0, 62]"] ;
909 -> 910 ;
911 [label="gini = 0.0\nsamples = 1\nvalue = [0, 0, 0, 0, 1, 0, 0, 0, 0, 0]"] ;
909 -> 911 ;
912 [label="X[355] <= 96.0\ngini = 0.5\nsamples = 2\nvalue = [0, 0, 0, 0, 0, 0, 0, 1, 1, 0]"] ;
908 -> 912 ;
913 [label="gini = 0.0\nsamples = 1\nvalue = [0, 0, 0, 0, 0, 0, 0, 1, 0, 0]"] ;
912 -> 913 ;
914 [label="gini = 0.0\nsamples = 1\nvalue = [0, 0, 0, 0, 0, 0, 0, 0, 1, 0]"] ;
912 -> 914 ;
915 [label="gini = 0.0\nsamples = 3\nvalue = [0, 0, 0, 0, 0, 0, 0, 3, 0, 0]"] ;
907 -> 915 ;
916 [label="X[234] <= 57.0\ngini = 0.5714\nsamples = 7\nvalue = [0, 0, 0, 0, 0, 2, 0, 0, 4, 1]"] ;
906 -> 916 ;
917 [label="X[682] <= 190.5\ngini = 0.4444\nsamples = 3\nvalue = [0, 0, 0, 0, 0, 2, 0, 0, 0, 1]"] ;
916 -> 917 ;
918 [label="gini = 0.0\nsamples = 2\nvalue = [0, 0, 0, 0, 0, 2, 0, 0, 0, 0]"] ;
917 -> 918 ;
919 [label="gini = 0.0\nsamples = 1\nvalue = [0, 0, 0, 0, 0, 0, 0, 0, 0, 1]"] ;
917 -> 919 ;
920 [label="gini = 0.0\nsamples = 4\nvalue = [0, 0, 0, 0, 0, 0, 0, 0, 4, 0]"] ;
916 -> 920 ;
921 [label="X[435] <= 13.5\ngini = 0.7524\nsamples = 37\nvalue = [0, 1, 3, 1, 1, 6, 1, 3, 16, 5]"] ;
905 -> 921 ;
922 [label="X[244] <= 15.5\ngini = 0.2449\nsamples = 7\nvalue = [0, 0, 0, 0, 0, 6, 1, 0, 0, 0]"] ;
921 -> 922 ;
923 [label="gini = 0.0\nsamples = 1\nvalue = [0, 0, 0, 0, 0, 0, 1, 0, 0, 0]"] ;
922 -> 923 ;
924 [label="gini = 0.0\nsamples = 6\nvalue = [0, 0, 0, 0, 0, 6, 0, 0, 0, 0]"] ;
922 -> 924 ;
925 [label="X[353] <= 246.5\ngini = 0.6644\nsamples = 30\nvalue = [0, 1, 3, 1, 1, 0, 0, 3, 16, 5]"] ;
921 -> 925 ;
926 [label="X[376] <= 169.0\ngini = 0.3045\nsamples = 17\nvalue = [0, 1, 2, 0, 0, 0, 0, 0, 14, 0]"] ;
925 -> 926 ;
927 [label="X[244] <= 25.5\ngini = 0.4444\nsamples = 3\nvalue = [0, 1, 2, 0, 0, 0, 0, 0, 0, 0]"] ;
926 -> 927 ;
928 [label="gini = 0.0\nsamples = 2\nvalue = [0, 0, 2, 0, 0, 0, 0, 0, 0, 0]"] ;
927 -> 928 ;
929 [label="gini = 0.0\nsamples = 1\nvalue = [0, 1, 0, 0, 0, 0, 0, 0, 0, 0]"] ;
927 -> 929 ;
930 [label="gini = 0.0\nsamples = 14\nvalue = [0, 0, 0, 0, 0, 0, 0, 0, 14, 0]"] ;
926 -> 930 ;
931 [label="X[234] <= 3.0\ngini = 0.7574\nsamples = 13\nvalue = [0, 0, 1, 1, 1, 0, 0, 3, 2, 5]"] ;
925 -> 931 ;
932 [label="X[539] <= 39.0\ngini = 0.2778\nsamples = 6\nvalue = [0, 0, 1, 0, 0, 0, 0, 0, 0, 5]"] ;
931 -> 932 ;
933 [label="gini = 0.0\nsamples = 5\nvalue = [0, 0, 0, 0, 0, 0, 0, 0, 0, 5]"] ;
932 -> 933 ;
934 [label="gini = 0.0\nsamples = 1\nvalue = [0, 0, 1, 0, 0, 0, 0, 0, 0, 0]"] ;
932 -> 934 ;
935 [label="X[182] <= 140.5\ngini = 0.6939\nsamples = 7\nvalue = [0, 0, 0, 1, 1, 0, 0, 3, 2, 0]"] ;
931 -> 935 ;
936 [label="gini = 0.0\nsamples = 3\nvalue = [0, 0, 0, 0, 0, 0, 0, 3, 0, 0]"] ;
935 -> 936 ;
937 [label="X[406] <= 134.5\ngini = 0.625\nsamples = 4\nvalue = [0, 0, 0, 1, 1, 0, 0, 0, 2, 0]"] ;
935 -> 937 ;
938 [label="gini = 0.0\nsamples = 2\nvalue = [0, 0, 0, 0, 0, 0, 0, 0, 2, 0]"] ;
937 -> 938 ;
939 [label="X[217] <= 126.5\ngini = 0.5\nsamples = 2\nvalue = [0, 0, 0, 1, 1, 0, 0, 0, 0, 0]"] ;
937 -> 939 ;
940 [label="gini = 0.0\nsamples = 1\nvalue = [0, 0, 0, 0, 1, 0, 0, 0, 0, 0]"] ;
939 -> 940 ;
941 [label="gini = 0.0\nsamples = 1\nvalue = [0, 0, 0, 1, 0, 0, 0, 0, 0, 0]"] ;
939 -> 941 ;
942 [label="X[326] <= 3.5\ngini = 0.3322\nsamples = 72\nvalue = [1, 0, 4, 0, 0, 0, 58, 0, 9, 0]"] ;
864 -> 942 ;
943 [label="X[121] <= 21.0\ngini = 0.0961\nsamples = 60\nvalue = [0, 0, 2, 0, 0, 0, 57, 0, 1, 0]"] ;
942 -> 943 ;
944 [label="gini = 0.0\nsamples = 57\nvalue = [0, 0, 0, 0, 0, 0, 57, 0, 0, 0]"] ;
943 -> 944 ;
945 [label="X[461] <= 13.5\ngini = 0.4444\nsamples = 3\nvalue = [0, 0, 2, 0, 0, 0, 0, 0, 1, 0]"] ;
943 -> 945 ;
946 [label="gini = 0.0\nsamples = 1\nvalue = [0, 0, 0, 0, 0, 0, 0, 0, 1, 0]"] ;
945 -> 946 ;
947 [label="gini = 0.0\nsamples = 2\nvalue = [0, 0, 2, 0, 0, 0, 0, 0, 0, 0]"] ;
945 -> 947 ;
948 [label="X[125] <= 74.0\ngini = 0.5139\nsamples = 12\nvalue = [1, 0, 2, 0, 0, 0, 1, 0, 8, 0]"] ;
942 -> 948 ;
949 [label="gini = 0.0\nsamples = 8\nvalue = [0, 0, 0, 0, 0, 0, 0, 0, 8, 0]"] ;
948 -> 949 ;
950 [label="X[548] <= 210.0\ngini = 0.625\nsamples = 4\nvalue = [1, 0, 2, 0, 0, 0, 1, 0, 0, 0]"] ;
948 -> 950 ;
951 [label="gini = 0.0\nsamples = 2\nvalue = [0, 0, 2, 0, 0, 0, 0, 0, 0, 0]"] ;
950 -> 951 ;
952 [label="X[184] <= 111.5\ngini = 0.5\nsamples = 2\nvalue = [1, 0, 0, 0, 0, 0, 1, 0, 0, 0]"] ;
950 -> 952 ;
953 [label="gini = 0.0\nsamples = 1\nvalue = [0, 0, 0, 0, 0, 0, 1, 0, 0, 0]"] ;
952 -> 953 ;
954 [label="gini = 0.0\nsamples = 1\nvalue = [1, 0, 0, 0, 0, 0, 0, 0, 0, 0]"] ;
952 -> 954 ;
955 [label="X[434] <= 87.5\ngini = 0.1209\nsamples = 717\nvalue = [4, 9, 1, 7, 5, 12, 2, 3, 672, 2]"] ;
863 -> 955 ;
956 [label="X[435] <= 102.5\ngini = 0.7742\nsamples = 31\nvalue = [4, 5, 0, 2, 0, 7, 1, 1, 11, 0]"] ;
955 -> 956 ;
957 [label="X[349] <= 252.5\ngini = 0.7851\nsamples = 22\nvalue = [4, 5, 0, 2, 0, 7, 1, 0, 3, 0]"] ;
956 -> 957 ;
958 [label="X[270] <= 192.5\ngini = 0.7266\nsamples = 17\nvalue = [4, 0, 0, 2, 0, 7, 1, 0, 3, 0]"] ;
957 -> 958 ;
959 [label="X[291] <= 34.5\ngini = 0.6272\nsamples = 13\nvalue = [0, 0, 0, 2, 0, 7, 1, 0, 3, 0]"] ;
958 -> 959 ;
960 [label="X[573] <= 15.5\ngini = 0.64\nsamples = 5\nvalue = [0, 0, 0, 2, 0, 0, 1, 0, 2, 0]"] ;
959 -> 960 ;
961 [label="gini = 0.0\nsamples = 2\nvalue = [0, 0, 0, 2, 0, 0, 0, 0, 0, 0]"] ;
960 -> 961 ;
962 [label="X[129] <= 54.5\ngini = 0.4444\nsamples = 3\nvalue = [0, 0, 0, 0, 0, 0, 1, 0, 2, 0]"] ;
960 -> 962 ;
963 [label="gini = 0.0\nsamples = 2\nvalue = [0, 0, 0, 0, 0, 0, 0, 0, 2, 0]"] ;
962 -> 963 ;
964 [label="gini = 0.0\nsamples = 1\nvalue = [0, 0, 0, 0, 0, 0, 1, 0, 0, 0]"] ;
962 -> 964 ;
965 [label="X[459] <= 169.0\ngini = 0.2188\nsamples = 8\nvalue = [0, 0, 0, 0, 0, 7, 0, 0, 1, 0]"] ;
959 -> 965 ;
